547 20
6015 -0.43915007 0.40351585 -0.054552313 0.44512302 -0.60192466 -0.44367787 0.005492839 0.1495359 0.08967442 -0.20116201 -1.066942 -0.044728853 -0.13366951 -0.050279703 0.047252744 -0.05290046 -0.12416422 -0.4028142 0.66127956 0.55391127
6078 -0.36661318 -0.038967114 -0.04019813 0.31690946 -0.36741626 -0.56273854 0.31254384 0.10400897 0.2629434 -0.1153561 -0.9373971 -0.124067366 -0.13310626 -0.07423454 -0.17640953 0.5193897 -0.031449035 -0.47230908 0.8298171 0.32672474
6221 -0.4791371 -0.12996376 -0.035515085 -0.106463484 -0.2891473 -0.73452777 0.102897435 0.06815876 0.37321305 0.09800161 -0.6880652 -0.0187254 -0.30128765 -0.32492447 -0.06372282 0.11774162 0.32555926 -0.5073468 0.8917557 0.07183627
6211 -0.52229935 -0.30056256 0.04893523 0.15634258 -0.6044868 -0.40842983 0.18062669 -0.10392644 0.5757157 -0.030927557 -0.87315726 -0.18971244 -0.20362137 -0.2714618 0.10912021 0.16005836 0.27431574 -0.83279526 0.60003513 -0.055739097
6014 -0.17909645 0.090511866 -0.014486924 0.09943222 -0.42022914 -0.44406775 -0.010176688 0.06493464 0.003487559 -0.39524162 -0.886141 -0.106372364 -0.19615966 -0.04204071 -0.12386472 0.31048664 -0.053500906 -0.43604586 0.5204871 0.34233105
6184 -0.5116356 -0.13798214 0.2413983 0.069789566 -0.37916452 -0.43786767 0.11831401 -0.05091174 0.29426813 -0.13724276 -0.80553025 -0.2602417 -0.12778132 -0.36130407 -0.09551555 -0.03274436 0.31736964 -0.70414436 0.722429 0.19161011
6012 -0.46602207 0.15974084 0.12306892 0.38984248 -0.21248473 -0.43051997 0.16001181 0.02710503 0.34686884 0.08985959 -0.9493407 -0.09029444 -0.33225068 -0.29821664 0.16483162 0.24897215 0.08770434 -0.7268044 0.88621885 0.35094827
6209 -0.38077325 0.15912126 -0.16804685 0.15364891 -0.31581277 -0.39989966 0.22923356 0.2646509 0.010205217 -0.10338368 -0.8836564 -0.014411349 -0.16921897 -0.07020463 -0.29501 0.1552227 0.1623118 -0.3198493 0.42735234 0.2668384
6177 -0.73118633 0.50900453 -0.11740745 0.38266248 -0.5063853 -0.09177112 0.03805286 -0.037755195 0.1297858 -0.26549464 -0.58629376 0.14975889 -0.052190494 -0.1137694 0.0113683175 -0.4169871 0.07483404 -0.7378597 0.5065235 0.47194833
6248 -0.6621703 0.24515685 -0.0143727455 0.23597518 -0.36173868 -0.44969273 -0.116629384 -0.09746235 0.36571595 0.09013105 -0.63946146 0.0029662563 -0.41187757 -0.3036018 0.05389837 -0.015730266 -0.078881025 -0.6584353 0.53411824 0.11242512
6032 -0.3099655 0.15254582 0.11139725 0.44692168 -0.305746 -0.4532487 0.15690035 0.07002871 0.29222438 -0.059152283 -0.887313 0.023988592 -0.28592202 -0.25991395 -0.03592997 0.31547529 0.040811095 -0.75238997 0.6878061 0.2819958
6100 -0.33438003 0.14308982 -0.06840665 0.2923557 -0.54192716 -0.4587114 -0.049627278 0.25850293 0.26364553 -0.06221146 -1.1643847 -0.072580606 -0.2742349 -0.21027108 0.12143867 0.35292566 0.053353082 -0.6011897 0.8631219 0.2695591
6020 -0.33711842 0.282164 -0.16390982 0.2197214 -0.4600238 -0.4369932 -0.12525977 -0.011707341 0.15747723 -0.20818591 -1.0613632 -0.15669718 -0.31165054 -0.16377246 -0.13714756 0.016516753 0.12136276 -0.59647286 0.9839246 0.4818607
6181 -0.48850384 0.110965766 -0.1603865 0.2618615 -0.24947807 -0.3802453 0.24914567 0.1941854 0.30825007 -0.11784198 -0.617238 -0.101482704 -0.105531305 -0.14475746 -0.036940206 0.21500574 0.30730027 -0.58700496 0.25133398 0.2193823
6901 -0.4680687 0.012052763 -0.24396311 0.111670874 -0.673644 -0.051674284 0.06157502 0.011633626 0.1839788 -0.34047505 -1.0868905 -0.05877654 -0.027338687 -0.061697055 -0.1238891 0.29515642 0.15193968 -0.5300554 0.5223691 0.26196432
6034 -0.4543884 0.104858056 -0.042178795 0.34404972 -0.3307422 -0.6091706 0.006344529 0.019459113 0.15592729 -0.080757976 -0.74373674 -0.25918335 -0.21144095 -0.30799967 0.1214145 0.30979514 0.15591434 -0.41273716 0.508638 0.17632067
6199 -0.5446307 0.04230472 0.091307476 0.019674046 -0.37236354 -0.5450658 0.16202262 -0.09780685 0.35100752 0.06624559 -0.7523597 -0.15072298 -0.17458802 -0.3405491 0.033639148 -0.1289182 0.12743829 -0.66787815 0.4772678 0.081550725
6073 -0.44890255 -0.100274414 -0.081645645 0.2287829 -0.46833915 -0.33025873 -0.004702238 0.32118353 0.3058189 -0.20064126 -0.9079498 0.089350864 -0.2315517 -0.1554957 -0.14488696 0.17806374 -0.023812639 -0.8155168 0.8160947 0.35743788
6063 -0.48017532 0.22250359 -0.16532151 0.32664394 -0.4457564 -0.5796174 -0.11417694 0.26993445 0.34512112 0.1576957 -0.9442505 0.06481377 -0.2624276 -0.18125539 -0.20752387 0.6075101 0.018822607 -0.67202765 0.70567673 0.091664456
6019 -0.51928675 0.3607718 0.1295095 0.0684563 -0.29891267 -0.5493727 0.14014181 -0.29907763 0.1796524 -0.23093064 -0.778732 0.0648993 -0.13741617 -0.08480041 -0.051554106 -0.42986846 -0.0038753403 -0.4312762 0.6777886 0.34229556
6216 -0.47697115 -0.022093104 0.053937133 0.33143395 -0.3566785 -0.47668698 0.27720237 0.046721216 0.19409211 -0.02996811 -0.8557123 0.028582348 -0.069751315 -0.22866808 -0.04386994 0.2547108 0.1435896 -0.6490022 0.5651061 0.25439015
6064 -0.36442238 0.06425137 -0.08463894 0.42098227 -0.35387167 -0.39644244 0.0989388 -0.060496192 0.32034627 -0.18799658 -0.9092702 -0.07246978 -0.2696814 -0.31462014 -0.047770437 0.20454791 0.4390508 -0.47339836 0.42996636 0.15257601
6043 -0.09322309 0.22113428 -0.039308745 0.22702454 -0.29877385 -0.40865743 0.051586006 0.11358478 0.17649564 -0.33499864 -0.9170407 0.04057973 -0.4069794 -0.060496494 -0.092175886 0.21703719 -0.043046016 -0.46203685 0.7120948 0.37552163
7034 -0.47491962 0.05340888 -0.08323759 0.017095054 -0.1865887 -0.3075687 0.1832431 -0.07030453 -0.07095596 -0.28186196 -0.18120189 0.041402087 -0.32843605 -0.1760155 0.09784527 -0.091982365 0.05201595 -0.38207427 0.17090039 -0.03305859
6154 -0.60248303 0.32076925 0.18899369 0.0023228617 -0.27334577 -0.32221174 0.072094545 0.18093742 -0.008541269 0.015228555 -0.59677505 0.13223258 -0.19129756 -0.36520407 -0.004868204 -0.29643816 0.044214755 -0.4515241 0.16551884 0.307883
6206 -0.44759738 -0.17122424 -0.2760721 0.257899 -0.2140944 -0.12071292 -0.04735589 0.13836385 0.0880866 -0.4594122 -0.6878914 -0.24062492 -0.20102277 -0.093675695 0.010803295 0.74889314 0.11067935 -0.42079294 0.118746474 -0.0035101501
6023 -0.38014907 0.23491175 0.014568262 0.32755947 -0.44797066 -0.33797196 -0.121987276 0.22378084 0.036800265 -0.20934433 -0.9073813 0.029060584 -0.24964392 -0.06514446 -0.067296155 0.5759372 -0.001529537 -0.58951795 0.8115242 0.12942922
6009 -0.3693237 0.20310898 -0.034931418 0.20249796 -0.4298107 -0.5345343 0.006496336 -0.142228 0.1292782 -0.10294255 -0.5530286 0.043214682 -0.24798262 -0.19810615 0.14483078 0.24341734 -0.16178657 -0.62117696 0.62772846 0.3096751
6104 -0.55487674 0.21224062 -0.31226468 0.34261194 -0.35431737 -0.10658564 0.09534084 0.21800344 0.035357606 -0.4890383 -0.8314405 -0.20816351 -0.048616305 -0.003835019 -0.18176071 0.0882296 0.09472393 -0.45348105 0.72142553 0.45610088
6175 -0.57575357 0.35841742 0.03255629 -0.043753196 -0.15905137 -0.19504413 0.3156554 -0.05570774 0.045811184 -0.16251495 -0.40999234 0.0029727905 -0.34018552 -0.0050361296 0.048773877 -0.27666697 -0.038338166 -0.31940973 0.21204641 0.10418792
6008 -0.53501946 0.25652373 -0.16496664 0.28658962 -0.33708352 -0.14014338 0.11896286 -0.21167198 0.21579863 -0.019598577 -0.9250991 0.09179649 -0.44003534 -0.1775478 0.02731623 0.25473884 0.09315402 -0.38263148 0.6169969 0.0024165553
6114 -0.4411516 0.15639232 0.027252177 0.09172655 -0.31582248 -0.2784284 0.12265337 0.10560355 0.2096785 -0.15502194 -0.7087709 0.071963914 -0.18701984 -0.047713943 -0.25328326 -0.1324842 -0.05393383 -0.690201 0.13708958 0.6416776
6193 -0.5280573 -0.28939012 -0.073209554 0.12930226 -0.39808592 -0.30735794 0.13017862 0.091384135 0.17854303 -0.15266727 -0.6457397 0.27274626 -0.1661037 -0.3999909 -0.017680975 -0.006576483 0.18835331 -0.8204858 0.6850766 0.31395507
6067 -0.4998994 0.053666804 0.077374525 0.1912652 -0.3162473 -0.57076865 0.045119964 0.046519194 0.2395673 -0.17597426 -0.7316066 -0.10513114 -0.32543433 -0.121914096 -0.24185842 0.2751778 -0.01242748 -0.34124467 0.8367523 0.12848069
6050 -0.5153967 0.34643573 -0.29510033 0.53197473 -0.40188164 -0.15669417 -0.012761388 0.1572961 0.047540076 -0.37434953 -0.9081187 0.070456676 -0.24965005 -0.060233507 -0.19973302 0.41488892 -0.099042125 -0.387613 0.8223102 0.20372182
6227 -0.79578143 -0.16581081 0.30238116 0.22664447 -0.6125253 -0.3683541 -0.13108632 0.052599914 0.29867542 0.048067868 -0.95886755 -0.17642549 -0.18721911 -0.558544 -0.08855968 0.121040605 0.15246172 -0.5955556 0.81489164 0.2253108
6083 -0.3820217 0.0640616 -0.13285717 0.51485115 -0.7007016 -0.30494738 -0.13861574 -0.045230668 0.282118 -0.2895549 -0.8496614 -0.25534022 -0.43234125 -0.02585183 0.08674437 0.45119008 0.10313089 -0.75660306 0.81041384 0.06668616
6142 -0.6235001 0.06463009 -0.08872372 -0.22648574 -0.42379996 -0.020387655 0.1228477 0.0051994864 -0.03168389 -0.14893489 -0.27185306 0.10284703 -0.18472666 -0.42526653 0.1419351 -0.10363248 -0.1796347 -0.55657166 0.21166138 0.1178446
6180 -0.23155467 0.19456954 -0.29010668 0.16828825 -0.4237093 -0.23949075 0.17431158 0.346835 0.2704375 -0.23895475 -0.63595957 -0.033354264 -0.32294825 -0.13570066 -0.22789823 0.1821345 0.020358492 -0.5062014 0.44665602 0.38968012
7066 -0.23084702 0.09653163 0.059216514 0.14034969 -0.22885077 -0.4360198 -0.02537424 0.008924741 0.011924285 -0.16490142 -0.821076 -0.07931427 -0.48643386 -0.30401862 0.037449375 0.59407514 0.17477548 -0.19229375 0.51471514 -0.037940674
6026 -0.1979901 0.2064086 -0.14998947 0.37198177 -0.14852434 -0.41838303 0.21101402 -0.031236047 0.25747925 -0.24559322 -0.6227631 -0.19478478 -0.3319509 -0.27538285 -0.05567816 0.45291093 0.25992993 -0.429666 0.4738832 0.13379243
6173 -0.50528777 0.39292607 -0.11329011 0.23980787 -0.19876486 -0.3241434 0.10216016 -0.13364336 0.46220663 -0.06586326 -0.7819412 -0.11043738 -0.29171255 -0.3048682 0.038588297 0.13570958 -0.18429339 -0.33245876 0.42706063 0.40207618
6187 -0.5219918 0.21378475 0.004194655 -0.17058076 -0.33164498 -0.33628064 0.2736326 -0.05806962 0.44972357 -0.041295994 -0.28700274 0.09922855 -0.45203426 -0.104003266 -0.11321916 -0.38438606 0.1289191 -0.35893515 0.18689981 0.1898698
6018 -0.5594085 0.3046981 -0.20191722 0.26898956 -0.4669802 -0.15366563 -0.08909668 0.015054144 0.02290817 -0.3592815 -0.5970581 -0.026225653 -0.2812914 -0.13596126 -0.18381561 0.041279975 -0.008670016 -0.334889 0.47951192 0.37061608
6061 -0.33267796 -0.071431644 -0.101174 0.20476529 -0.42436734 -0.31431687 0.2496007 0.1703682 0.15252931 -0.32086027 -0.7988146 0.01829261 -0.12075835 0.0039503607 -0.32755983 0.44157434 0.036435436 -0.40474102 0.39053226 0.3945456
6214 -0.62216294 -0.024533072 0.12627697 -0.005818025 -0.3489325 -0.4802469 0.07479856 0.12581007 0.17412782 -0.050842322 -0.70100546 -0.026583748 -0.15167311 -0.17626888 0.073157914 -0.0986437 0.024753222 -0.542305 0.4880655 0.3627155
6052 -0.27289015 0.002600696 0.008670238 0.20781292 -0.2848641 -0.42161277 0.10172869 0.16305502 0.14414178 -0.17458272 -0.6710871 -0.08273018 -0.43202928 -0.09848006 -0.08423508 0.69295716 0.29997003 -0.35443088 0.5975945 0.11734503
6143 -0.44311258 -0.12334143 -0.0047199773 -0.2876246 -0.32195258 -0.49625587 0.25070092 0.5076192 0.30727425 0.016580274 -0.65287817 -0.107516274 -0.1467465 -0.34323034 -0.12951046 -0.072415635 0.11522487 -0.4877066 0.55522734 0.28831077
6157 -0.60325795 -0.16224714 0.04292359 -0.11390164 -0.3610063 -0.440264 0.12137168 0.22510442 0.3116649 -0.098758936 -0.44999203 0.021007108 -0.13818502 -0.26314494 -0.1676148 0.02975056 0.033973362 -0.4426989 0.08501029 0.0141732255
6027 -0.45575488 0.0799706 -0.057104174 0.46832743 -0.1820658 -0.6752438 -0.07585985 0.18659589 0.082102805 -0.29262775 -0.75126976 -0.07423675 -0.09936296 -0.24937078 0.077931814 0.42952514 0.021216115 -0.46785277 0.70662844 0.25402224
6196 -0.3946985 -0.06611821 0.08227081 -0.08280373 -0.19465995 -0.4854674 -0.0071392553 -0.028166603 0.33469063 -0.32719406 -0.5845032 0.07928411 -0.21039785 -0.25162783 -0.13096397 0.026988372 0.26601642 -0.5462816 0.38290697 0.14890952
6116 -0.41307485 0.49534464 -0.2540928 0.31372318 -0.55421984 -0.10323609 -0.2113191 -0.0353066 -0.01159954 -0.48222402 -0.85600483 -0.046794977 -0.36792344 -0.0037692774 -0.13308905 -0.3041016 -0.091538265 -0.41466352 0.58042985 0.5929361
6178 -0.562499 0.04435191 0.03879471 0.06139786 -0.2363766 -0.23723082 0.16099331 -0.009228334 0.12804584 -0.26121575 -0.7618736 0.03811669 -0.14021254 -0.102212265 -0.15276365 -0.021821067 0.1740884 -0.5696773 0.56139344 0.2323826
6036 -0.08239595 0.3235077 0.09193215 -0.05295988 -0.28837472 -0.41367757 0.048859816 0.23968303 -0.045148894 -0.3939457 -0.7835808 0.21902184 -0.35451812 0.21701908 -0.2515973 0.4172792 0.13867436 -0.2552836 0.7269936 0.27090603
6218 -0.5078627 -0.18365508 0.1724352 0.2023559 -0.13714959 -0.52520186 0.14299853 -0.04211458 0.10785494 0.023103287 -0.47835782 -0.2932969 -0.42552966 -0.3755209 0.26118642 0.17437968 0.19218609 -0.7563933 0.6239941 0.027603662
6179 -0.5413647 0.26181874 -0.16999988 0.052500788 -0.43333548 -0.13902573 0.037054263 0.1768622 -0.037646506 -0.19285993 -0.7206419 0.13719498 -0.13869938 -0.07883872 -0.03360884 -0.1940805 -0.018742574 -0.58674014 0.2538383 0.20832136
6013 -0.4322625 0.15129246 -0.22165231 0.033669803 -0.54109484 -0.26162967 -0.11604174 -0.025045814 0.15064347 -0.15922548 -0.8723882 0.04679663 -0.31374964 -0.17958452 -0.07994796 0.24729373 0.016799552 -0.56111187 0.9434788 0.32791665
6233 -0.262024 -0.19727288 0.03793842 -0.18012385 -0.26695406 -0.7247 0.43539223 0.02554463 0.14655511 0.15885223 -0.38652107 -0.100226544 -0.23343724 -0.5225599 0.17750321 0.06851852 0.24151944 -0.5405665 0.36539188 -0.041239448
6112 -0.62564313 0.13214833 -0.0029662775 0.48495868 -0.3633196 -0.21601816 0.21202132 0.06995531 0.16969296 -0.17973466 -0.88969773 -0.087026626 -0.18842338 0.060499813 -0.10182345 0.21201368 0.048309173 -0.63518494 0.59740055 0.23280662
6146 -0.4426399 0.28258985 -0.002082322 -0.08208049 -0.22289446 -0.19565193 0.060952112 -0.19857433 0.22132188 -0.29596782 -0.34908152 0.11264226 -0.47357047 -0.19317567 -0.0055903066 -0.39746246 -0.04476179 -0.41484818 0.13253264 0.22160721
6223 -0.35220698 -0.22087815 0.09157465 -0.14768308 -0.28111547 -0.56806767 0.28910086 0.28733984 0.22462411 0.035555787 -0.5997456 -0.15725856 -0.1954936 -0.40943375 -0.069872305 0.4945404 0.3176043 -0.46417838 0.5187993 -0.19775847
6072 -0.30372757 0.09936533 -0.26186848 0.26987478 -0.27156767 -0.35429254 0.012413664 0.10568932 -0.02137027 -0.37977785 -0.6808405 0.07654303 -0.28011936 -0.14174017 -0.046811476 0.50749475 0.1372005 -0.3346668 0.62400323 -0.07382215
6202 -0.2703135 0.027708013 0.0024975613 0.061563 -0.27783048 -0.42583534 0.12661263 0.028679596 0.020985855 -0.13196215 -0.64995724 -0.1694427 -0.39619946 -0.34521142 -0.043574322 0.16339214 0.2690393 -0.25939822 0.12236475 -0.021821542
6044 -0.75327885 0.044706378 -0.043622464 0.18419729 -0.2325284 -0.06431783 -0.17397277 -0.122566916 0.27069753 -0.4393951 -0.43372792 -0.19690342 -0.20188768 -0.21820588 -0.0792268 -0.14454803 0.2205879 -0.6793773 0.13347106 0.27178103
6070 -0.22550482 -0.12524241 0.050200336 -0.049791064 -0.1684881 -0.29539105 0.16505717 0.14470148 0.03263871 -0.50932693 -0.4805012 0.03324747 -0.134196 -0.23905233 -0.06539038 0.56219316 0.029319033 -0.2981924 0.22545652 0.029084787
6169 -0.7059272 0.0077598738 0.17438228 0.0049889274 -0.16846849 -0.3618572 0.27821892 0.112409145 0.17404033 -0.0067592673 -0.55543673 -0.1846449 -0.11878593 -0.5215233 -0.04917858 -0.20808463 0.118853614 -0.44980532 0.3442282 0.11627969
6203 -0.53520983 -0.23646326 -0.032525964 -0.22519977 -0.3620372 -0.5554637 0.027310105 0.17950855 0.25450557 -0.05018108 -0.66024727 -0.019688359 -0.03707669 -0.42250258 0.037194658 0.43231806 0.032554362 -0.31932744 0.23169708 0.007681598
6213 -0.60430026 0.03729702 -0.030339172 0.17075159 -0.1584061 -0.35923067 0.17538165 0.09957702 0.22626883 -0.19504124 -0.58007735 -0.27056265 -0.21800366 -0.12913215 -0.06767842 0.37735537 0.05407038 -0.50656813 0.7256696 -0.070098124
6215 -0.240215 0.03002237 0.026590921 0.16181143 -0.49298567 -0.35619256 0.18275501 0.12113609 0.30407992 -0.025560675 -0.478383 0.1490753 -0.4159607 -0.3171788 -0.07153284 0.378406 0.31654462 -0.5911697 0.29674402 0.034439784
6231 -0.4457818 -0.18410231 0.26168588 -0.08137113 -0.25055704 -0.55224955 0.29676452 -0.094553895 0.12049937 -0.10345895 -0.30311874 -0.18822014 -0.11466222 -0.32039568 0.019570814 0.21905002 0.21808684 -0.5555162 0.24002382 -0.10857258
6195 -0.65739304 0.0043587615 -0.025758408 -0.049656563 -0.24949716 -0.29544795 0.017650781 -0.06368977 0.23718803 -0.24816751 -0.45798153 -0.1283912 -0.029316796 -0.480533 -0.33090815 -0.1060223 0.06361835 -0.54851747 -0.070124 0.030677376
6165 -0.8306196 0.16212843 0.18408328 -0.08972998 -0.42225838 -0.26823455 0.054393046 0.11219506 0.20463192 0.047252465 -0.27695778 -0.064235605 -0.31435856 -0.35704178 -0.09922262 -0.3870863 -0.025123803 -0.48985347 0.30150124 0.24879986
6280 -0.4342727 0.11034118 -0.025374446 -0.26410708 -0.1700808 -0.39912033 0.06360553 -0.03889949 0.077305034 0.009220649 -0.5343018 0.01812019 -0.26625115 -0.361293 0.1401634 -0.07775704 -0.09675017 -0.4735363 0.13327208 0.060516704
6729 -0.44591802 0.008068751 -0.42062056 0.41444182 -0.3572921 -0.29481295 0.039867528 -0.03827676 0.15446568 -0.39526534 -0.7791268 0.014904369 -0.26536158 0.061665807 -0.025110608 0.15883495 -0.03784279 -0.707859 0.6409779 0.23678897
6220 -0.40762055 -0.22637443 0.09443485 0.003854024 -0.28050092 -0.38233864 0.22125883 0.026386062 0.26853982 -0.14385849 -0.66122764 -0.18091176 -0.057061452 -0.5066602 -0.028384142 0.039863806 0.22589907 -0.7009037 0.26175672 0.2278528
6085 -0.29425007 0.3093095 -0.23771594 0.2915778 -0.23944199 -0.40016735 -0.1061389 0.21476604 0.21909514 -0.27124473 -0.78174645 0.09735758 -0.5086691 0.1314543 -0.055441465 0.71946645 0.041187424 -0.2160291 0.5801494 0.10202427
6200 -0.3712039 -0.21520326 0.1912861 -0.037678104 -0.075360924 -0.37379205 0.36204278 -0.022594295 0.25955355 -0.061266184 -0.22714481 -0.18286496 -0.3998003 -0.355353 -0.14314316 0.06565181 0.34708005 -0.53892326 -0.19441113 0.030139562
6411 -0.2653072 -0.1878394 0.18433858 0.13078845 -0.15463358 -0.31896278 0.2739853 0.28824434 0.2780965 -0.4417977 -0.6366823 -0.21616057 -0.29344922 -0.18568462 -0.2766189 0.19696113 0.39547917 -0.53872573 0.54053223 0.068903364
6148 -0.48317975 0.38789767 0.14025642 0.052803464 -0.22965688 -0.21634237 0.2480641 0.09992592 0.111857966 -0.32449776 -0.4095269 -0.23607884 -0.22338769 -0.19718102 0.076659404 -0.39268014 -0.020167226 -0.39714736 0.36897972 0.224557
6155 -0.59127736 0.002755173 0.12077068 0.00236064 -0.24920027 -0.39146122 0.2712509 -0.05762141 0.048017535 -0.034645 -0.36526734 -0.060893487 -0.32791156 -0.229153 0.018922616 -0.24659562 0.15757221 -0.5049087 0.36556214 0.024809524
6234 -0.43763348 -0.29095295 0.32008594 -0.22587353 -0.32437283 -0.7044525 0.38292533 -0.10847629 0.25147834 0.052350353 -0.21762383 -0.28162882 -0.40014374 -0.339248 0.28764626 0.06894719 0.07775623 -0.3368235 0.4018975 -0.1470269
7080 -0.52604055 0.19879952 -0.026338503 0.28934267 -0.2254522 -0.16374324 0.23134631 -0.06412197 0.20135018 -0.10812912 -0.961636 -0.09407564 -0.3680252 -0.052701663 0.10522386 0.22296014 0.017876677 -0.5119567 0.67892957 0.2500942
6745 -0.22524063 -0.0025011578 0.038927775 0.23865563 -0.43738222 -0.48283127 0.15652771 -0.10071196 0.17040822 -0.10330402 -0.9398485 -0.159383 -0.21187122 -0.24844708 -0.16504951 0.31509805 0.24234793 -0.69213563 0.44322962 0.17351054
6176 -0.52242744 -0.42273745 0.15396807 -0.39747983 -0.3206065 -0.37993643 0.3517875 0.3281791 0.47999212 0.0571596 -0.37315497 -0.069542214 -0.35142165 -0.38638738 0.040508635 0.008825071 0.13918258 -0.52412283 0.30743212 -0.17947452
6307 -0.60898715 -0.044196885 -0.008151703 -0.110123895 -0.27943277 -0.526511 0.089928284 0.20050347 0.28988042 -0.052779645 -0.33401158 -0.24580966 -0.04987541 -0.21516901 0.14504229 0.06120599 0.09583085 -0.6231031 0.17823566 0.2955656
6137 -0.50086015 0.18721108 0.112584986 0.05461167 -0.2293188 -0.23791483 0.08016395 -0.1617123 0.39853665 -0.089623995 -0.42188612 -0.011259506 -0.47385207 -0.18678431 0.029057503 -0.06326631 0.015770651 -0.63465166 0.30984035 0.30200082
6271 -0.7145904 -0.28204772 0.08329642 -0.18342625 -0.24320914 -0.3855478 0.12913778 0.22214018 0.24516043 -0.031762067 -0.3033353 -0.16900073 -0.07880818 -0.49077314 0.022433918 0.029007163 0.036187947 -0.6801822 0.2709624 0.017477473
6708 -0.19572629 -0.011753363 0.07312974 0.31968528 -0.24366271 -0.34862965 0.23153378 0.39566025 0.3337284 -0.19376715 -0.89446205 -0.08095153 -0.42157286 -0.27713594 -0.107507914 0.7898617 0.10679739 -0.17268476 0.47441736 -0.08231889
6413 -0.33297214 0.28756523 -0.2347715 0.17445427 -0.096799165 -0.5369789 0.19114083 0.03316084 0.28881457 -0.29281548 -0.7053344 -0.051669113 -0.26205224 0.030745875 0.08272215 0.4592067 0.1759013 -0.083042555 0.45858 -0.054450814
6183 -0.6259893 -0.37545753 0.20313197 0.01573105 -0.3550095 -0.3715451 0.18892434 -0.191841 0.39778432 -0.066442415 -0.38687444 -0.041100327 -0.29974803 -0.44459885 0.068631664 0.21424551 0.18701826 -0.6690041 0.478997 0.056881476
6158 -0.47759682 -0.026569577 0.30977517 -0.24275434 -0.19263966 -0.38799116 0.43302676 0.1185074 0.06289525 0.0449545 -0.020918215 -0.041066058 -0.16997859 -0.14458197 0.2777518 0.0018522266 -0.025710048 -0.83536 0.0902647 0.101048544
6021 -0.41361204 -0.15963957 0.14044628 -0.071979 -0.34242895 -0.4379242 0.15292187 0.071446866 0.12517044 -0.23653449 -0.5848711 -0.15759699 -0.18514892 -0.30564997 0.081772946 -0.0069909682 0.035155516 -0.63054496 0.63369226 0.10518673
6147 -0.71919435 0.19132362 -0.21719517 0.1430043 -0.3789294 -0.11120943 -0.06634024 -0.008529714 0.24152605 -0.13006751 -0.4864462 -0.2622211 -0.2993472 -0.29759723 0.10596615 -0.23767678 0.10481276 -0.6186996 0.120267294 0.13662702
6081 -0.07049255 0.19266014 -0.16499421 0.054817237 -0.23136038 -0.200116 0.3224993 0.32854587 0.1094351 -0.5093592 -0.63601166 0.08941867 -0.31808898 0.0564104 -0.24356341 0.43567553 0.17016082 0.07268831 0.046530876 0.33606148
6174 -0.53369755 0.080157235 -0.018041369 0.26922014 -0.52224416 -0.21650213 0.1236221 -0.054734867 0.10677572 -0.3245608 -0.50539947 -0.12088902 -0.40637892 -0.20035785 0.03667249 -0.029282227 0.037464805 -0.24647087 0.44125634 0.07531937
6908 -0.81000894 0.029670497 0.064918034 -0.22375505 -0.34454265 -0.3026218 0.17371398 -0.2472449 -0.03547515 0.009336969 0.07049484 0.12079823 -0.34989116 -0.33409822 0.035947982 -0.27368453 -0.0061997073 -0.3732601 0.17050186 -0.113261126
6003 -0.41373825 0.32779735 -0.27751938 0.17478983 -0.23041715 -0.0074456437 0.22073188 0.0041355304 0.008817981 -0.4947762 -0.92244947 0.079099335 -0.02943598 0.08198598 -0.26231608 0.19701222 -0.0002731283 -0.43221122 0.44926608 0.281596
6907 -0.46616265 0.07522479 0.21511257 -0.5179137 -0.25515747 -0.36344913 0.2092744 -0.07335564 0.19948944 0.076741815 0.058505822 -0.058694396 -0.3843243 -0.34572312 0.29274997 -0.046498068 -0.03572054 -0.41790357 -0.20919895 0.08417229
6902 -0.5693361 0.4070448 -0.076564625 0.283346 -0.46282518 -0.1596012 0.16271959 -0.123755865 0.29468596 -0.2913231 -0.6243297 0.04277845 -0.32066885 0.041440744 -0.46345004 -0.16765323 0.107610725 -0.46414044 0.5920572 0.4064424
7038 -0.42514804 -0.07217582 -0.0028465055 -0.0409765 -0.28575212 -0.35820302 0.048062854 0.21811058 0.14174269 -0.2559208 -0.5621227 -0.037664384 -0.15169457 -0.21764252 -0.024355292 0.23861414 0.3468001 -0.57286155 0.43153358 0.14291713
6205 -0.5018357 0.07809359 0.33011895 0.061948687 -0.265469 -0.23543648 0.37804976 0.28872326 0.39423695 -0.21492979 -0.5245692 0.056259282 -0.005752978 -0.1665019 -0.14053224 0.22679272 0.15248962 -0.635236 0.45959288 0.2444445
6001 -0.42243978 0.21368463 -0.3698617 0.44181693 -0.2530988 -0.15174408 0.21617967 0.14875685 -0.15497491 -0.52622414 -0.76306397 0.094441265 -0.092135176 0.042998187 -0.3527197 0.038729776 0.0048084767 -0.4303569 0.2116427 0.32320118
6119 -0.5731052 0.53546655 -0.074243 0.22850592 -0.1941851 0.09109289 -0.026479635 -0.08527733 -0.03887119 -0.4165357 -0.7578585 -0.010454927 -0.10833128 -0.19083798 0.09573926 -0.16335161 -0.011278516 -0.42944434 0.20383532 0.5709593
6225 -0.4478869 0.16770916 0.0073468704 -0.40399817 -0.20063698 -0.1289516 0.2656939 0.23131463 0.2377923 0.003438177 -0.43858176 0.1958869 -0.26596993 -0.324694 0.16463822 -0.0009349952 0.1758058 -0.19595334 -0.029330062 0.3510975
6229 -0.37780124 0.019698694 0.007769665 -0.4517956 -0.41138753 -0.21434304 0.27793163 -0.105156295 -0.028372938 -0.23171347 0.27003193 -0.09919837 -0.18048355 -0.2591397 0.20860139 -0.058941446 0.015142002 -0.6285288 -0.038713023 0.07897782
6903 -0.35966936 -0.27167463 -0.17765547 -0.024240272 -0.43359005 -0.4766206 0.17738959 0.087646045 0.28975007 -0.054174528 -0.6676932 0.047555402 -0.111118816 -0.38909578 0.023922177 0.19759722 0.08204888 -0.71867716 0.3715937 0.14326036
6079 0.02137687 -0.05091189 0.011682492 -0.2943328 0.0059729037 -0.47376263 0.30958703 0.39428106 0.16170876 -0.2423893 -0.4188947 0.0048768623 -0.37835497 -0.3158534 0.010735116 0.43913978 0.34552383 -0.16854547 -0.0463704 -0.20238633
6188 -0.6736065 0.057760257 -0.08596215 0.08920068 -0.19079502 -0.16589266 0.15594283 -0.15723412 0.08410773 -0.06811315 -0.14188862 0.00043766724 -0.2969865 -0.31413442 0.19127567 -0.051465075 0.19712684 -0.64318746 0.022517646 0.021751903
6136 -0.63133436 -0.09918749 -0.14237826 -0.03172155 -0.146932 -0.32482854 0.068831176 0.1113298 0.32057425 -0.16298701 -0.44967294 0.0031286906 -0.22887067 -0.2455608 -0.025587922 0.17831275 0.12829983 -0.4581001 0.2278705 0.019305598
6039 -0.11838988 0.18437646 -0.13835831 0.2631956 -0.18089391 -0.12954272 0.08684298 0.25004533 -0.047967188 -0.46551692 -0.94319576 0.024371488 -0.4848101 -0.036921058 -0.042676218 0.7240543 0.22350064 -0.018682515 0.5235751 0.19910286
6007 -0.46838492 0.08514814 -0.09298951 0.21945293 -0.46898556 -0.18326116 0.025369909 -0.10578373 0.2114124 -0.5912544 -0.78367996 0.13768706 -0.2019973 0.0359777 -0.29517967 -0.090302736 0.22841074 -0.62616515 0.73453677 0.1362506
6235 -0.69891804 -0.096248195 0.29937366 -0.09566509 -0.29307252 -0.4384014 0.10128233 0.0017499813 0.34359807 0.11495898 -0.47786045 -0.06949392 -0.34406242 -0.37239346 0.10838256 -0.16955803 0.13817345 -0.67896587 0.45337236 0.07439897
6118 -0.24473526 0.46185896 -0.2771683 0.021838065 -0.4144745 -0.003422285 0.052056964 0.030165816 -0.104693405 -0.5250144 -0.6340653 0.08394615 -0.22365484 -0.01787603 -0.06932997 -0.21708451 0.09631067 -0.30520883 0.12916072 0.5303493
6107 0.14950918 0.14367974 -0.08973921 0.29031676 -0.15596871 -0.51578385 0.13524249 0.29038304 -0.28074807 -0.50444114 -0.8462322 -0.1366623 -0.25217432 -0.14913745 -0.16980064 0.7526764 0.19014452 -0.19410565 0.27929598 0.036806833
6224 -0.2890503 -0.24549598 0.04525383 -0.41393533 -0.21260363 -0.25384945 0.36359838 0.22672918 0.18842506 -0.11354454 -0.20539992 0.10915804 -0.44348478 -0.29711974 0.0010825444 0.20142852 0.16273265 -0.38307688 0.21287964 0.024311196
6316 -0.016290821 -0.4151951 0.21854436 -0.10027822 -0.2432167 -0.67404664 0.3851637 0.18895894 0.43531814 -0.08642448 -0.31257257 -0.029415084 -0.33005637 -0.49172822 -0.03463917 0.95268816 0.34058666 -0.41010904 0.33904234 -0.30985886
6145 -0.4636485 0.19509925 -0.13506699 -0.11528814 -0.2834427 -0.34402716 0.061420783 -0.1199751 0.3169996 -0.08432811 -0.47214895 0.047070645 -0.24482465 -0.27347538 0.1814456 -0.2022511 -0.13161996 -0.6840455 0.048168145 0.121703476
6151 -0.6264245 0.4779043 -0.020826956 -0.104619406 -0.21133433 -0.23820154 0.11422608 -0.2169607 -0.01713962 -0.28760475 0.08198214 0.15094122 -0.27479568 -0.11455001 -0.07925698 -0.5866336 -0.35250255 -0.4474568 -0.18327296 0.21229908
6182 -0.5219546 -0.15444185 -0.0099043045 -0.51812136 -0.33281144 -0.3516273 -0.042708322 0.12793596 0.043692052 -0.24874003 -0.07396184 -0.116842054 -0.11029226 -0.29319882 0.14797549 0.03567935 0.13828948 -0.4750893 0.046210863 0.15410556
6042 -0.15038946 0.18920112 0.12217769 0.123333275 -0.123637795 -0.41928393 0.316004 0.27124882 0.08584333 -0.24297185 -0.76796436 -0.10687139 -0.2818074 -0.2887764 -0.067547165 0.6098889 0.3070191 -0.064407036 0.45248687 -0.16696337
6230 -0.79247296 -0.4661396 -0.2039456 -0.10163287 -0.20455651 -0.52856266 0.24196295 -0.027587852 0.44882834 -0.048649374 -0.42503625 -0.026647083 0.042799983 -0.31739444 -0.06999539 0.12870802 0.10220449 -0.6367082 0.25246724 -0.0060159154
6113 -0.43854713 0.6026605 -0.18233782 0.30348772 -0.22945546 -0.33600733 0.090601034 -0.07036159 -0.016323717 -0.38265955 -0.56433 -0.1999379 -0.27235267 -0.052583244 -0.24034554 -0.1317999 -0.24203336 -0.3057691 0.56921613 0.319512
6140 -0.65579855 0.119021565 0.030072212 -0.28654775 -0.30607596 -0.18682615 0.07645287 -0.0688064 0.24463108 -0.32477838 -0.27022305 -0.17400996 -0.13750525 -0.12574333 0.006464239 -0.19786628 -0.074591056 -0.34047803 -0.116883166 0.27996686
6393 -0.6456856 0.5338841 -0.073100105 0.048317727 -0.23227398 -0.07986802 0.065690376 -0.23243605 -0.13532539 -0.51495427 -0.2594765 0.19338968 -0.1616171 -0.07774296 0.09703796 -0.41455933 -0.36825508 -0.24148552 0.14575352 0.41877082
6212 -0.26660034 0.2383981 -0.296266 0.30065373 -0.2380163 -0.31432408 0.28014898 -0.018633178 -0.1269653 -0.40724263 -0.32112253 -0.047163416 -0.18177474 -0.32022247 0.06187782 0.054861963 0.23592596 -0.3986836 0.14719723 -0.10261866
6065 -0.2536672 0.107765034 0.043136645 0.15815014 -0.2744685 -0.35690477 0.06401515 0.20424967 0.23154739 -0.23063728 -0.5921816 -0.012033693 -0.2043365 -0.27027068 -0.2561799 0.70083505 0.17494544 -0.40361866 0.1922946 0.114349686
6163 -0.5067274 -0.081588425 0.2235507 -0.34751388 -0.31048596 -0.22367275 0.2774772 0.11806382 0.2930163 -0.25698 -0.25307426 -0.05909617 -0.28976962 -0.21033181 -0.13024062 -0.3654002 0.14047408 -0.47161806 0.08414595 0.14352088
6371 -0.6897668 0.20313373 0.002020669 -0.44353122 -0.33737817 -0.26685786 0.2387455 -0.15222786 0.13281217 -0.148647 0.3783613 0.047117673 -0.09331479 -0.4910897 0.2007984 -0.59118056 -0.16396175 -0.4399304 -0.39879212 0.12378268
6750 -0.6080854 0.12805408 -0.39117736 -0.20690025 -0.32849476 0.14153256 0.1641863 -0.23374733 0.005224226 -0.5759786 -0.22031415 -0.07128915 -0.07794321 -0.08826526 0.13702002 -0.28925037 -0.32069883 -0.3756876 -0.22166361 0.30573374
6217 -0.5901664 0.08308049 -0.07555665 0.12675999 -0.3471389 -0.28384492 -0.037750058 -0.056196094 0.20813948 -0.19838832 -0.439803 0.037137754 -0.15983832 -0.31839237 -0.13507335 0.0483414 0.35529405 -0.600246 0.25558257 0.23817074
6166 -0.7895789 0.3037812 0.40525913 -0.3689251 -0.002320961 -0.21057013 0.16966745 0.04661654 0.025409004 0.13331535 0.04067533 -0.011415478 -0.31696606 -0.38380054 0.12696575 -0.45439002 0.06523026 -0.50168884 -0.058033932 0.17280713
6041 -0.09808412 0.36611903 -0.2779673 0.16667682 -0.19552599 -0.18982331 0.12567548 0.23576687 -0.03899591 -0.50194097 -0.7261705 0.082846634 -0.52843386 0.112586044 -0.25459388 0.39331725 0.051758524 -0.03883138 0.4012949 0.014562759
6131 -0.4009395 0.4707301 0.07527412 -0.30551574 -0.3108091 -0.13381493 0.2530523 -0.050588936 -0.21075638 -0.34831357 0.26527977 -0.028239392 -0.173192 -0.22463584 0.22901136 -0.1728432 -0.30326432 -0.21781112 -0.16502714 0.32165942
6910 -0.7549042 0.16273132 0.095983565 -0.24024373 -0.08788301 -0.40825307 0.2836329 -0.029308897 0.28091145 0.32879877 -0.13570246 -0.10195529 -0.13679798 -0.48511824 0.40964332 -0.19868776 -0.052739516 -0.59388936 -0.1752856 0.16868387
6926 -0.46941972 0.27673146 -0.13138731 0.22545683 -0.18890953 -0.21125335 0.23869312 -0.13682066 0.115017384 -0.36386612 -0.39861277 -0.14618787 -0.12928116 -0.10978356 -0.020424059 -0.004718305 -0.054651737 -0.6090997 0.19248992 0.13007124
7067 -0.063484505 0.061566126 0.09503841 -0.087563016 -0.22394769 -0.44391152 0.21203975 0.06411604 0.16818646 -0.28379267 -0.5063308 0.12624635 -0.53552 -0.110948004 0.008095696 0.4638599 0.21363725 -0.032913666 0.14563912 0.09411637
7069 -0.2464035 -0.018472984 -0.14949223 0.008126595 -0.059989464 -0.42725348 0.32383874 0.23832618 0.07080245 -0.22224581 -0.80534333 -0.22600386 -0.18214492 -0.19910946 -0.03745721 0.5154832 0.24303663 -0.06400735 0.16231367 0.13180539
6190 -0.6663964 -0.109737866 -0.018386925 -0.13857506 -0.21731041 -0.32346246 0.09618229 0.06325575 0.1173569 -0.11076265 -0.13284266 0.002106899 -0.19638878 -0.13453367 0.12644586 0.076670416 -0.0014405317 -0.6168826 0.033123147 0.19430079
6152 -0.7785004 0.33028278 -0.20774199 0.069444284 -0.39533746 -0.25227463 0.0513023 -0.3111233 0.21519884 -0.17274858 -0.15891817 -0.048742574 -0.17067917 -0.18967316 0.09203963 -0.3522767 -0.2916495 -0.39620224 -0.14712213 0.21056278
6170 -0.47388738 0.09357113 0.08471902 -0.07769616 -0.032145534 -0.31656715 0.25933063 -0.08670334 0.051772483 -0.12938115 -0.10869543 -0.2699828 -0.28168014 -0.45725742 -0.05825448 -0.063796595 0.31337804 -0.43849263 -0.1183236 -0.093522236
6059 -0.15843336 0.21098994 -0.289668 0.24094164 -0.29563788 -0.28252277 0.19264737 0.3022678 0.2753645 -0.20920302 -0.94000804 -0.031432204 -0.3969924 -0.101448596 0.080794096 0.5334733 0.2122637 -0.26239723 0.44210052 -0.06500791
6243 -0.18086809 -0.17898712 0.36112016 -0.3614431 -0.049319632 -0.6459844 0.48132172 0.07859973 -0.018014891 0.10884899 -0.094342746 -0.06034155 -0.54102904 -0.37233877 0.16890572 0.08946574 0.16512264 -0.34705967 0.2144354 -0.091945946
6129 -0.71344393 0.4320569 -0.10537888 -0.014285524 -0.46444312 -0.027272608 0.17618726 0.08321861 -0.048208106 -0.31647104 -0.47494614 0.06978851 -0.030740844 -0.0029222302 -0.20154306 -0.46465337 -0.27166227 -0.47123888 0.13999781 0.26655284
7072 -0.45835948 0.32133964 -0.09744406 0.1406467 -0.17364962 -0.016974974 0.2757635 0.009689023 -0.03452045 -0.42913365 -0.4334519 0.04546941 -0.20747921 -0.08407946 -0.09293722 -0.11971079 -0.029455379 -0.32883143 0.021281336 0.18658885
6004 -0.26912156 0.38044465 -0.16674349 -0.112396285 -0.14298488 0.020738456 0.09870656 -0.028560625 0.16982359 -0.67984676 -0.3330595 -0.030989142 -0.4584103 0.11223539 0.08980029 0.20801482 0.11126219 0.08809844 -0.23603079 0.1505253
6035 -0.16913253 0.3099024 -0.10826616 0.11906083 -0.17641039 -0.24146265 0.19316931 0.1567151 0.30040473 -0.2764697 -0.55365515 0.0003034638 -0.43784258 -0.004299822 -0.047418162 0.5957194 0.13348943 -0.24727519 0.4063873 0.24509105
6038 -0.13838704 0.5638637 -0.24003461 0.37239888 -0.287218 -0.21508284 0.10177579 0.24199188 0.050998125 -0.33493397 -0.92223054 -0.105977684 -0.44988492 0.013692666 -0.123727344 0.65495664 0.09905398 -0.11786437 0.56818736 0.15231769
6219 -0.525031 0.1296065 -0.2731307 0.093016885 -0.30479488 -0.35087898 0.01912823 -0.21653734 0.21153873 -0.47399133 -0.4725335 0.0044990233 -0.18619892 0.03535509 -0.25094458 0.0071290904 -0.11751291 -0.27004954 0.00038392787 0.11026021
6406 0.15696928 0.3058949 -0.2632357 0.32142842 -0.09952156 -0.17681585 0.092943855 0.17863734 0.07117348 -0.72735125 -0.95053136 -0.05961226 -0.44891006 -0.08438812 -0.09895937 0.9395548 0.2706175 0.16059624 0.21014127 0.035371434
6738 -0.026382519 0.29186642 -0.2113663 0.08433119 -0.29410905 -0.32368717 0.022507668 0.057001155 -0.0017138155 -0.4661053 -0.6740857 -0.083377816 -0.4512019 -0.04112859 0.05355402 0.69490945 0.21805072 -0.11247688 0.48192173 -0.15627341
6095 0.040726755 0.0796038 -0.30395293 0.3192585 -0.093542315 -0.38825402 0.4750685 0.37783685 -0.017925268 -0.4738133 -0.85890627 -0.07684171 -0.32504994 -0.021381225 -0.21089551 0.65663594 0.19937481 0.001801747 0.25186443 0.11953088
7026 -0.4120546 0.024947893 0.034718845 0.033647366 -0.35174125 -0.39184365 0.063629344 0.06906298 0.051725127 -0.22301565 -0.12561248 -0.091999836 -0.49513718 -0.17229253 0.012048927 -0.027187089 0.020473208 -0.4469744 0.09066553 0.11474771
7036 -0.38084874 -0.33714268 0.16141531 -0.43904406 -0.09758186 -0.4322921 0.32923836 0.04617052 0.4125963 -0.049001563 -0.16666003 -0.17197356 -0.40578166 -0.30311307 0.02735346 0.24894965 0.291092 -0.3241048 -0.21895726 -0.3161088
6394 -0.50047344 0.66144216 -0.15355133 -0.024856796 -0.19616356 -0.26379967 0.0028207295 -0.12172515 -0.13951118 -0.55054283 -0.0016041775 0.3413481 -0.13511755 -0.057757992 -0.19355981 -0.5780858 -0.12994124 -0.2542268 -0.051084902 0.48803383
6031 -0.35130265 0.15227298 -0.40039453 0.2754068 -0.2277712 -0.32636228 -0.008758516 0.046687216 0.06298588 -0.26015255 -0.7830095 0.02159923 -0.42863825 -0.025255686 -0.050080094 0.39777106 0.13456209 -0.23703794 0.2882463 0.16169493
6066 0.02373947 0.12543058 -0.15404795 0.30070344 -0.4530551 -0.2972401 0.08738722 0.20976911 0.16973998 -0.5165634 -1.1428609 0.00027049825 -0.2551942 0.004621313 -0.23988976 0.79801303 0.13570079 -0.30154377 0.6507079 0.2996984
6053 -0.2646139 0.41709122 -0.2401624 0.43946084 -0.18417151 -0.35368693 0.08272631 0.15039355 0.09747814 -0.40915525 -0.6240927 -0.16467121 -0.32641903 -0.028860284 -0.3728909 0.58659905 0.20581914 -0.31521088 0.49123544 -0.14408989
6040 -0.12025498 0.36960465 -0.010242124 0.347635 -0.1790203 -0.26025653 0.09370056 -0.011249204 0.16859469 -0.29592007 -0.72719157 0.077358246 -0.5625032 0.05783795 -0.30543295 0.51020956 0.2805184 -0.430832 0.29011178 0.09046184
6164 -0.7041527 0.525909 0.06992706 -0.12722987 0.018019862 -0.25020447 0.3418096 -0.002167725 0.13849872 0.111236386 0.14827108 0.062180586 -0.20147987 -0.38973492 0.08671617 -0.31594983 -0.007364763 -0.5791685 0.0017575204 0.2787545
6092 -0.19615597 -0.065834686 -0.16675502 0.4285475 -0.20219477 -0.43528676 0.025880976 -0.14997298 0.1581386 -0.37689456 -0.75097996 -0.13284697 -0.5462448 0.05535285 -0.10397734 0.89194757 0.14673308 -0.29777035 0.2807378 -0.32294306
6250 -0.6508849 0.01681363 0.15680356 -0.49598598 -0.045825314 -0.12642372 0.2191917 -0.055662308 -0.008132165 -0.16505219 0.19719326 0.01876155 -0.16386816 -0.30829573 0.114072785 -0.15125264 -0.06733764 -0.51536685 -0.47999012 0.0117973285
7032 -0.5629513 -0.03360928 0.29752174 -0.43334603 -0.06938657 -0.24242713 0.4090065 0.06742437 0.15880716 -0.14075603 0.029511364 0.014649297 -0.120235935 -0.38043803 0.03920176 -0.042658973 0.06598858 -0.37123695 -0.09859019 -0.26357093
6186 -0.5395815 0.26973835 0.15899698 -0.371926 -0.04498388 -0.5293642 0.3689063 -0.26574928 0.34382865 0.023134848 0.4168591 -0.11943125 -0.13565612 -0.43913063 0.30570638 -0.15694216 -0.1307481 -0.4751453 -0.44876996 0.051761262
6503 -0.53559476 -0.30525896 0.20401953 -0.30720332 -0.12011741 -0.6503733 0.26465446 0.10723813 0.26503658 0.06896849 -0.031842276 -0.097338215 -0.1131559 -0.3843386 0.006809691 0.28430504 0.21677214 -0.6994135 -0.07341806 -0.33526444
6060 -0.19209868 0.109637186 -0.19843471 0.46934307 -0.037872918 -0.42631498 0.13548462 0.16213323 -0.01661726 -0.6039378 -0.6609318 -0.27910447 -0.35216904 -0.0397768 -0.3629741 0.5605595 0.028917758 -0.0832932 0.24811667 -0.056255713
6068 -0.3680551 -0.10412284 -0.19859254 0.009672495 -0.16502497 -0.13110918 0.162776 0.18408613 0.28530905 -0.47254068 -0.7424397 0.0062098573 -0.31098855 0.013637026 -0.014152087 0.48852903 0.33715898 -0.16132356 0.27280426 -0.07261104
6912 -0.7780947 0.22708596 0.21045302 -0.49689022 0.010802753 -0.09169262 0.3097214 -0.18885836 -0.07612806 -0.06425428 0.34133053 -0.10133803 -0.07326564 -0.4347511 0.25013748 -0.37948716 -0.10791191 -0.526209 -0.5700739 -0.13974987
6310 -0.5512306 -0.4271015 -0.119689725 -0.43533224 -0.37576574 -0.37685505 0.17820007 0.10795689 0.2252833 -0.16009502 0.09054345 -0.16422278 -0.34404588 -0.30403227 0.11965162 0.35138676 -0.086243436 -0.1909707 -0.12305196 -0.32561812
6046 -0.09673029 0.0549782 0.025423838 0.5309752 -0.032835435 -0.4613155 0.06382754 0.12801911 0.10284479 -0.5308453 -0.79799736 -0.08781541 -0.46423602 -0.05867427 -0.16732846 0.8266503 0.40734136 -0.10419495 0.27514648 -0.052272495
6222 -0.50972515 -0.29261705 -0.052752104 -0.2209292 -0.24101399 -0.51656973 0.33365518 0.044731926 0.22994606 -0.1950845 -0.042220756 0.05242824 -0.114431895 -0.19454066 -0.1282711 0.20051648 0.23494472 -0.4521569 -0.052130856 -0.22754449
7073 -0.46452707 0.58271855 -0.49957147 -0.1629196 -0.2805377 -0.14601533 -0.14162938 0.0038265542 -0.14213286 -0.62084883 -0.68078923 -0.08425986 -0.20321399 0.07100438 -0.029606523 -0.4732962 -0.07738681 0.030671256 0.1744435 0.51090854
6204 -0.2368736 -0.0038216827 0.0764689 -0.030155666 -0.16959773 -0.42495322 0.22514357 -0.0072425916 0.071184985 -0.32489327 -0.59456354 -0.09919088 -0.36008322 -0.06525994 -0.0246734 0.39097956 0.20713718 -0.19512154 0.4039399 -0.2049624
6306 -0.5639277 -0.44290435 -0.15408726 -0.21784785 -0.44414106 -0.5084869 0.18216525 0.026228089 0.21090916 -0.20404156 -0.44609752 -0.25712875 0.028955849 -0.4074368 0.1736224 0.27166298 0.12776585 -0.3953479 0.245699 -0.23976779
6025 -0.19029716 0.56774205 -0.09045555 0.30710152 -0.114096776 0.010813367 0.18428949 0.10034489 0.027366191 -0.48588756 -0.5987098 0.087247185 -0.5252744 0.07542155 -0.34500438 0.38387176 0.25757325 -0.05293799 0.07451174 0.12274289
6344 -0.52802145 -0.13960356 0.3174902 -0.3464438 0.12877768 -0.2445828 0.38762137 -0.20920117 0.2862587 -0.045178942 0.20567043 0.09210306 -0.28076604 -0.35558262 0.0057765255 0.048770566 -0.0037080646 -0.7088861 -0.40776774 0.0732701
7031 -0.3701607 0.029050063 0.15691724 -0.13914512 -0.25388956 -0.22954857 0.37246263 0.05501462 -0.11586103 -0.33069882 -0.28257507 0.23591617 0.025436906 -0.29826468 -0.086523265 -0.1933217 0.008651511 -0.56095785 -0.008278607 0.37950578
6321 -0.5171857 -0.48911384 0.3587805 -0.63148046 -0.21118285 -0.44557813 0.43227565 -0.082638435 0.1904229 -0.188641 0.3952687 -0.07082339 -0.002919152 -0.2794818 0.14053707 0.027307972 0.18543352 -0.6120297 -0.56020045 -0.26021156
7028 -0.49995095 -0.25695127 0.20010215 -0.5243873 -0.20628777 -0.17908448 0.43231863 0.049516708 0.09564805 -0.1265571 -0.14377283 0.08311378 -0.18751751 -0.32736582 0.15183127 -0.009557441 -0.059518654 -0.44105434 -0.031767443 0.031777192
6236 -0.5295106 0.5416732 -0.016903015 -0.44539356 0.023608072 -0.3492814 0.28134006 0.095993154 -0.14779052 -0.20802303 0.33956966 0.06596326 -0.058059413 -0.22390746 0.0532554 -0.53866357 -0.10236952 -0.4589858 -0.068449974 0.2583575
6391 -0.66672415 0.6514688 -0.30217144 0.10460407 -0.097341254 0.039931614 0.08838673 -0.3529792 -0.091092505 -0.4862119 -0.11114071 0.2358985 -0.36277223 0.28945968 0.010257244 -0.42350468 -0.30032647 -0.36709735 0.11389656 0.5097
7037 -0.31206203 0.01104559 -0.121093966 0.041493554 -0.13048302 -0.07050609 0.2590911 0.13160354 -0.07628118 -0.3049437 -0.36422014 0.046241134 -0.42228103 -0.0756683 -0.095667616 0.4445032 0.19402297 -0.41410482 0.19944316 0.0349357
6117 -0.254063 0.7472969 -0.42445672 0.124281555 -0.21198861 0.18757263 0.16979295 0.042742684 -0.24783784 -0.57136863 -0.34652886 0.26742703 -0.46311304 0.029566986 -0.2191777 0.009974897 -0.19678898 0.028032528 0.18192749 0.5605392
6421 -0.67185235 0.07301249 0.2824078 -0.6689158 -0.15139659 -0.43960395 0.07903981 -0.07354831 -0.009038496 0.0012445328 0.49266738 0.29448453 -0.20545709 -0.22890937 0.28415745 -0.15385781 -0.21977633 -0.698302 0.013753027 0.03994309
6098 -0.13217613 -0.24175882 -0.0063129445 0.3414936 -0.16100305 -0.38595137 0.34522027 0.14040451 0.21453176 -0.22992697 -0.92170954 0.08559213 -0.4195191 -0.10278978 -0.23666435 0.98382443 0.29942927 -0.1810612 0.09027266 -0.16505054
6749 -0.07438166 0.27689534 0.13251774 0.14186582 0.12491153 -0.1943639 0.26919994 0.22831914 0.08571632 -0.466719 -0.7312156 -0.04499249 -0.31170577 -0.07067514 0.002119324 0.4178543 0.40085095 -0.15768747 -0.016142227 0.08745643
6011 -0.29627314 0.25997725 -0.06595627 0.38737205 -0.15506876 0.050322775 0.1884107 0.03505269 0.037111823 -0.5246227 -0.6948244 0.29831576 -0.476718 -0.061720185 -0.25941107 0.41749585 0.18123567 -0.16144645 0.45673996 0.47544697
6387 -0.50239664 0.6489763 -0.23990144 -0.093247876 -0.08463345 0.09972999 0.05394362 -0.18006629 -0.46658507 -0.34225917 0.017416231 0.3428485 -0.17456295 -0.3017337 0.11430823 -0.3967294 -0.16741718 -0.47382337 -0.27019054 0.230083
6057 -0.18662454 0.3369505 0.016596755 0.3812053 -0.00090485916 -0.29960096 0.15447913 0.010724842 -0.022521505 -0.4718645 -0.6977135 0.09878871 -0.5090245 0.12074021 -0.15912062 0.82217544 0.34272575 0.054117408 0.35636514 0.06741965
6094 -0.59584564 0.11960159 0.029485544 -0.13401991 -0.0008313122 -0.25077194 0.4005436 -0.118045606 0.3701897 -0.12910871 -0.057074666 0.07034643 -0.25262293 -0.14357959 0.18258329 0.2724895 0.07136974 -0.27839693 -0.1161105 -0.1165807
6124 -0.62947685 0.7788827 -0.5292845 -0.040060062 -0.1430456 0.09377158 0.033865567 -0.2822705 -0.29582775 -0.59335685 -0.10857602 0.19170474 -0.19323465 0.21133894 -0.032030184 -0.27537295 -0.5163661 -0.1335626 -0.20400637 0.40648037
6191 -0.6750354 -0.39098024 0.37725317 -0.41276062 -0.0811617 -0.5652437 0.3149263 -0.036129534 0.43491876 0.15596583 -0.10801627 -0.20587529 -0.19529732 -0.46342212 0.25481355 0.008006717 0.12524496 -0.8078958 0.18834269 -0.18685079
6314 -0.5750341 0.3658047 -0.1523517 -0.13378762 -0.38828048 -0.13962658 0.18941316 -0.3326583 -0.13108611 -0.45089474 -0.054658853 0.2471149 -0.18804975 0.08126852 -0.08687845 -0.3191995 -0.32156062 -0.159029 -0.18348153 0.2921461
6150 -0.8313447 0.23110949 0.09258052 -0.08756743 -0.18109366 -0.09652471 0.15331644 -0.11600665 -0.11425378 -0.22448987 -0.099764615 0.16204487 -0.15793587 -0.14731611 0.1038343 -0.4302586 -0.32516095 -0.42350423 -0.44698918 0.14747947
6160 -0.32894024 0.15129158 0.15311871 -0.42726675 -0.03616724 -0.34276715 0.436344 -0.05313304 -0.0080750445 -0.076460674 0.27971148 0.02760262 -0.38347647 -0.5409593 0.20519562 -0.2324441 0.1331079 -0.29920503 -0.1834167 -0.0028100754
6915 -0.8113558 0.122672215 -0.03818074 -0.2716861 -0.2781452 -0.33170128 0.027300127 -0.1459178 -0.049723722 -0.14287785 0.06424206 0.0037593627 0.013771233 -0.37176856 0.3515722 -0.21176219 -0.29797724 -0.53748596 -0.14538187 -0.07460365
6123 -0.36498886 0.578124 -0.2945806 0.09717776 -0.34423253 0.17610656 0.10025057 -0.23759699 -0.021916559 -0.8062518 -0.26122028 0.19217923 -0.4089644 0.24473114 -0.24550582 -0.37662014 -0.06564945 -0.18590797 0.004904121 0.40868858
6928 -0.12717664 -0.25219774 0.14099099 -0.08221442 -0.32113135 -0.5185249 0.2225856 0.08439633 -0.017773388 -0.25878087 -0.096741304 -0.09451897 -0.26139203 -0.2777092 0.1335527 0.4902215 0.3293271 -0.6316564 0.25619027 -0.09204867
6087 0.255862 0.2958943 -0.14209047 0.2330431 -0.18338221 -0.19047947 0.12345984 0.3104493 -0.045890372 -0.5731795 -0.7549913 -0.039163403 -0.6131937 -0.038633738 -0.25016356 1.0364107 0.29941845 0.071082525 0.14817233 -0.11475869
6133 -0.5666312 0.21502425 -0.05819802 -0.31584996 -0.07802064 -0.18030672 0.14031163 -0.06486448 -0.14403331 -0.2933844 0.018280532 -0.20842189 -0.09846712 -0.21575513 0.18253204 -0.2847729 -0.2847103 -0.5481466 -0.42718548 0.04712744
6247 -0.75643235 -0.0864074 0.25656164 -0.22318795 -0.25273174 -0.36632782 0.10286141 -0.0825923 0.4370336 -0.03181407 0.16318172 0.1736237 -0.25821134 -0.17246921 0.16037245 0.030486017 0.076650925 -0.7574403 -0.080175586 0.0673189
6171 -0.29595095 0.43550125 -0.05354885 0.058891457 -0.112668954 0.14200138 0.21051586 0.094586 -0.06875354 -0.49827066 -0.5527875 -0.10898899 -0.37937927 0.034133397 0.027884716 0.033580773 0.3352866 -0.31150064 0.2907956 0.31900057
6168 -0.76059085 -0.25785884 0.13933766 -0.6458087 -0.104980305 -0.33430377 0.39917243 -0.13986072 0.042139247 -0.09420665 0.4745116 -0.118486404 -0.096348315 -0.49237403 0.32184377 -0.28762528 -0.27266896 -0.41319883 -0.46061832 -0.09173076
6141 -0.75924504 0.06464389 -0.28352037 -0.36606544 -0.23668335 -0.15672007 0.035872765 -0.118964724 -0.114881985 -0.5872716 0.22736646 0.0028820147 -0.19806236 0.09845225 -0.03395791 -0.39192373 -0.24089967 -0.15765496 -0.22771314 0.20296004
6105 -0.15687989 0.9228123 -0.47920576 0.08557067 -0.48470643 0.32402816 -0.07095649 -0.01407172 -0.30060562 -0.85335034 -0.60784525 0.26362506 -0.31697363 0.16101828 -0.04609939 0.22606826 -0.052762773 0.18459642 0.2591069 0.5111667
6108 -0.3464582 0.6095504 -0.1371066 -0.2708125 -0.24490477 -0.049760778 -0.074670516 -0.1909527 -0.047579344 -0.4928452 -0.35326895 0.07497296 -0.31927606 0.04231114 0.11959769 -0.03876095 -0.1723757 -0.1380578 0.1372906 0.4913096
6262 -0.7003089 -0.038554348 -0.02764542 -0.61219543 -0.08550894 -0.31738466 0.11602421 -0.14238589 -0.220235 -0.13785064 0.5010935 -0.08852855 -0.12881258 -0.21612947 0.04799202 -0.044835277 -0.21482742 -0.6114811 -0.28825253 0.075101234
6022 -0.5934104 0.4873321 -0.16635902 -0.5004025 -0.052403044 -0.066769965 0.097684905 -0.21226142 -0.30801442 -0.48157293 0.6678335 0.20075272 -0.3409641 -0.038163316 0.13458675 -0.40551707 -0.27766126 0.029631691 -0.8155589 0.18265313
7040 -0.58742124 -0.059864596 0.33595872 -0.6187271 -0.35203338 -0.27895504 0.4223785 0.011773399 0.037136223 -0.035002958 0.2732577 -0.028311852 -0.030567847 -0.49352896 0.20933965 -0.2573551 -0.2528819 -0.53199863 -0.17570056 0.19910051
6037 -0.23945077 0.5743264 -0.41137522 0.50954133 -0.10846353 -0.16470644 0.028544115 -0.028293103 -0.21934451 -0.66217077 -0.6006891 0.22680677 -0.36308903 0.16794802 -0.25598648 0.68928903 0.12237359 -0.064725555 0.5556064 -0.07353235
6255 -0.6365936 -0.06687232 -0.047088604 -0.4320782 -0.10643392 -0.24230339 0.23789012 0.0034816004 -0.16310064 -0.2675786 0.36435997 0.099428706 -0.018000556 -0.3384751 0.0499133 -0.16673592 -0.30710572 -0.5433248 -0.5053231 0.0034698227
6130 -0.72506976 0.5005212 -0.37270468 -0.02403244 -0.21473618 0.12407741 -0.04201954 -0.08278829 0.20252167 -0.31243816 -0.08879046 0.18906078 -0.21623959 -0.24017578 -0.10404585 -0.09267526 -0.07079744 -0.34643883 -0.0054561626 0.65163815
6274 -0.55110097 0.18291318 0.07107823 -0.17013694 0.024528723 -0.16474272 0.46139497 -0.20212212 0.25063223 -0.10332175 0.062827736 -0.05725211 -0.097811155 -0.32682633 0.25637594 -0.15804529 0.030794779 -0.558214 -0.58944964 0.15807128
6927 -0.19957216 -0.82006997 0.036380693 -0.0610942 -0.42184916 -0.54993755 0.08373025 0.20176189 0.33832017 -0.044900525 0.18703012 -0.23801321 -0.44640574 -0.964277 0.15791465 0.99727654 0.22974683 -0.81082094 0.122746885 -0.9640921
6424 -0.044057257 -0.20691517 0.06993985 0.024344357 0.100351535 -0.1781163 0.43897066 0.45892656 -0.119857065 -0.5560514 -0.0785444 -0.011151313 -0.5455951 -0.09726043 -0.0109069925 0.90112406 0.20728834 0.030564442 -0.060983136 -0.21178849
6201 -0.52335685 0.29501918 0.08276541 -0.057335928 -0.38991266 -0.2798381 0.046902712 -0.06980622 0.013418821 -0.23633292 -0.35303083 -0.09421725 -0.21471038 -0.18664041 -0.02445758 -0.05405731 -0.21012257 -0.49731445 0.13186286 -0.03450843
6208 -0.22903723 -0.24704815 -0.3055181 0.14129625 -0.112851985 -0.21591665 0.3424138 0.11311219 0.3321302 -0.41805917 -0.73427266 -0.28818098 -0.3046172 -0.11746317 0.027101811 0.7086984 0.4010195 -0.22687319 0.14758787 -0.1474249
6207 -0.29596782 -0.07176567 0.14797226 -0.21500133 -0.1909471 -0.3924137 0.35324648 0.18394834 0.20528647 -0.18854225 -0.4212923 -0.11881029 -0.22591557 -0.2506916 0.02877841 0.32262653 0.1849232 -0.24380761 0.10528901 -0.02360535
6381 -0.8200331 0.33452302 -0.040012565 -0.4340117 -0.054954406 -0.029018655 0.05296807 -0.31678718 -0.31071946 -0.51302904 0.4903058 0.033287615 -0.11415242 -0.052664757 0.1461537 -0.5144114 -0.38233593 -0.39435136 -0.45468163 0.13685025
6906 -0.45485586 0.07942522 -0.009780061 -0.7718785 -0.11609873 -0.27545694 0.35268748 -0.0039967652 -0.24153495 -0.18710531 0.48154414 0.008676709 -0.09211978 -0.430533 0.2127389 -0.22386841 -0.21423459 -0.43415794 -0.27205387 -0.1386244
6134 -0.5944018 0.4200736 -0.2132958 -0.6157339 -0.2464051 -0.042107597 0.05884472 -0.0764939 -0.2853104 -0.29197857 0.1943722 0.015770756 -0.4234091 0.038526632 0.18913417 -0.42976487 -0.47594237 -0.11478632 -0.30572173 0.21547149
6281 -0.31910154 0.09593006 0.09843113 -0.53915405 0.072021194 -0.32404542 0.06921449 -0.020664537 -0.17865786 -0.23448431 0.17101268 0.25610793 -0.50059694 -0.36289623 0.23195364 -0.09453575 0.1072575 -0.14284474 -0.2325819 0.08055072
6153 -0.7405491 0.60548073 -0.37675887 -0.36577466 -0.059648126 0.17263058 0.0005796825 -0.33924064 -0.3446136 -0.67398643 0.31559485 0.22959065 -0.251662 0.026573062 0.0915788 -0.58029115 -0.31344908 0.040996473 -0.33940098 0.44559222
6049 -0.17453459 0.4303789 -0.36571237 0.16812117 -0.2894196 -0.089750566 0.11983769 0.2582893 0.19341946 -0.37661028 -0.81991863 0.16539657 -0.38935652 -0.1262138 -0.06819107 0.45190936 0.12728204 -0.09957574 0.42390335 0.34603646
6396 -0.49162275 0.496546 -0.22432008 -0.20900953 -0.3636381 -0.11197462 -0.24539343 -0.186279 -0.24611898 -0.5530329 -0.03846258 0.22419052 -0.1408546 -0.058292277 0.1466996 -0.3472246 -0.314561 -0.6025477 0.040109165 0.42344794
6167 -0.786395 0.18704401 0.2793384 -0.48001957 -0.11962116 -0.3145084 0.33946446 -0.079541 -0.057896905 0.063088134 0.32338744 -0.059601173 -0.13006909 -0.29564995 0.23361757 -0.38314822 -0.059198696 -0.46501547 -0.34189254 0.067346394
6747 -0.5857229 -0.32865322 0.4640134 -0.84874886 -0.19386522 -0.4742005 0.29050985 -0.09914308 -0.30793193 -0.1575957 0.5014374 -0.033208292 0.079760544 -0.5539252 0.26119873 -0.04863204 0.010855785 -0.5199436 -0.12327326 -0.37975267
6062 0.053202845 0.19116807 0.0046741455 0.41369125 0.21617559 -0.31788638 0.42837557 0.07822226 0.1070662 -0.5003671 -0.7836822 -0.03181326 -0.7272432 -0.03278643 -0.09971915 0.9176879 0.31683215 0.36691707 0.30849752 -0.019924138
7074 -0.27516553 0.43406567 0.011548626 0.05779545 -0.009713268 -0.2596818 0.3293903 -0.262489 -0.15108818 -0.30905852 -0.1720616 0.012019529 -0.25898498 -0.087658785 0.055085957 0.080069125 0.0048400396 -0.3409666 -0.039501846 0.36651224
6159 0.2616877 0.3710562 -0.06453194 0.10052107 0.068087205 -0.32346025 0.40055412 0.32569823 0.07225487 -0.34033382 -0.55312544 0.0953267 -0.6885593 -0.116922386 -0.05438306 0.7721797 0.32337755 0.13269098 0.34219837 0.1250725
6058 -0.15459926 0.16841227 -0.3000148 0.3182056 -0.20935923 -0.33908844 0.1469542 -0.03053028 0.27413914 -0.5124338 -0.63851607 -0.08964067 -0.44961202 0.08837125 -0.24536309 0.6358695 0.25211912 -0.12555611 0.28884807 -0.0285054
6432 0.3517452 0.09708028 -0.45909533 0.08804886 -0.22338851 -0.3482529 0.32369867 0.54604596 -0.09398035 -0.6510597 -0.7990773 -0.015266204 -0.4910257 0.22494604 -0.38054395 1.0252866 0.41241446 0.25456703 -0.098895185 -0.057050742
7077 -0.5558995 0.59506166 -0.45426077 0.19518554 -0.2756507 0.19879617 -0.11402949 -0.2519782 -0.06563044 -0.7578154 -0.20511936 0.054736078 -0.34188494 0.024630487 0.17098781 -0.17855395 -0.1406027 0.05280777 -0.29297313 0.47996625
6139 -0.2839433 0.48014504 0.033288423 -0.33408195 -0.072311595 -0.027261714 0.1153015 -0.026617322 -0.28557056 -0.5072124 0.22129418 0.2005673 -0.39588222 -0.096700475 0.040724635 -0.2330069 -0.1975309 -0.35562775 -0.036850918 0.16938865
6395 -0.7412974 0.5060898 -0.44686115 -0.25272888 -0.34740537 0.17194754 -0.059785295 -0.12843338 -0.13147897 -0.6533793 0.04047288 0.13047515 -0.21400283 -0.0067796702 -0.24885568 -0.6670526 -0.2708055 -0.20454293 -0.0046530357 0.651153
6197 -0.51771396 0.1561337 0.3433689 -0.6882496 -0.29236752 -0.11539827 0.044958048 -0.21866319 -0.3093341 -0.14623468 0.38642177 0.2183684 -0.27765623 -0.2759677 0.41485423 -0.33480832 -0.13400275 -0.5994907 -0.29681385 0.34122437
6385 -0.36378843 0.31471017 0.21802674 -0.52527004 -0.06436164 -0.056930587 0.45300218 -0.18688013 -0.22356375 -0.3157815 0.15415786 0.07758837 -0.30393755 -0.17596947 0.13847943 -0.3744968 -0.11347683 -0.19971615 -0.2975383 0.19768722
6237 -0.42853907 0.51120704 -0.014540332 -0.34722328 -0.10263207 -0.30490726 0.058925305 -0.28710103 -0.15872532 -0.24841213 0.22059155 0.34964895 -0.33117247 -0.14188367 0.08837903 -0.2362444 -0.23099001 -0.19001731 -0.40336367 0.16378842
6254 -0.631065 -0.24930955 0.25378066 -0.539838 -0.2579056 -0.21038996 0.42212138 -0.10200223 -0.14284122 -0.2079008 0.5636416 -0.014839254 -0.0024649529 -0.41076785 0.03101577 -0.068512045 -0.01739752 -0.70677716 -0.17632271 -0.27235097
6257 -0.6911424 -0.16393273 0.2518991 -0.85943204 -0.09908125 -0.39105535 0.48951983 0.05802296 -0.13996859 -0.04395515 0.5470889 0.10731515 -0.08603593 -0.26724428 0.32359073 -0.3234335 -0.36333516 -0.3128139 -0.4433893 -0.03091925
6232 -0.32929066 -0.27018732 0.3251433 -0.4259798 -0.08277879 -0.42745113 0.4744005 0.27822724 0.09871843 -0.049576174 -0.4307841 -0.19080731 0.08385717 -0.46938184 0.05844192 0.39874133 0.18289779 -0.43694326 -0.27084827 -0.2010957
6252 -0.41341692 -0.2859363 0.31293258 -0.47436404 -0.02479004 -0.51278794 0.5173957 0.110851556 0.095970586 0.02514779 0.57107246 -0.12912619 -0.2611159 -0.5454981 0.3482662 0.18100148 0.1893698 -0.5000845 -0.503486 -0.35297436
6267 -0.6766774 0.18196118 0.08704317 -0.7421491 -0.1363216 -0.24615185 0.22372332 -0.30494836 -0.021958573 0.0034203662 0.5389359 -0.10517723 -0.08403765 -0.5033868 0.4528369 -0.5335193 -0.2038373 -0.6809597 -0.63342386 0.030139053
6268 -0.765031 0.0454157 0.16564786 -0.70262015 -0.2595903 -0.20436622 0.26778623 -0.0858736 0.15960312 -0.102151714 0.3862554 0.28823027 -0.10608307 -0.30986533 0.2944842 -0.4702655 -0.2327381 -0.43916842 -0.26597482 0.14525013
6389 -0.69547296 -0.21684608 0.04357325 -0.632788 -0.13480823 -0.40953717 0.2336647 0.19902022 -0.007979552 -0.08628598 0.46155825 -0.046899915 -0.012502737 -0.45867613 0.15265842 -0.17086503 -0.26946396 -0.6694845 -0.18763855 0.0122288065
6905 -0.57866436 0.27807045 0.32958797 -0.7881407 -0.09003952 -0.33521876 0.02731825 -0.16462527 -0.36125383 -0.34696037 0.3986983 0.07693425 -0.14950477 -0.32374498 0.34305036 -0.5418514 -0.2522304 -0.23974495 -0.29809922 0.11073982
6132 -0.51223683 0.77217597 0.0018433633 0.08874976 -0.20278373 0.094005376 0.029088786 -0.19521382 -0.09974586 -0.6271116 -0.05412697 0.11295176 -0.250875 -0.11543576 -0.040916204 -0.21487616 -0.17918885 -0.17584711 0.095859885 0.4720835
6311 -0.56733334 -0.21416187 0.11286227 -0.6930404 0.036135904 -0.3967376 0.4789211 -0.17016459 -0.018626925 0.039203886 0.39810622 -0.026479905 -0.28272417 -0.30936563 0.26392174 -0.18317671 -0.16358177 -0.4824575 -0.63865566 -0.30297703
6138 -0.6180419 0.44516006 -0.14457703 -0.42250073 -0.3139834 -0.066845305 0.23023334 0.009542466 -0.3321483 -0.525287 0.17889276 0.07329549 0.004655811 0.021960841 -0.043549493 -0.4096385 -0.20460638 -0.21420301 0.020914434 0.33392867
6501 -0.16388382 0.9618326 -0.40899172 0.39109644 -0.036955543 0.1292335 0.21273823 0.14522381 -0.09395219 -0.7685187 -0.6634384 -0.060287546 -0.25661814 0.16957512 -0.35284808 0.14209537 0.19134511 0.13112342 -0.10023498 0.41713485
6161 -0.37247774 0.22765505 -0.007710034 -0.28629056 -0.028103942 -0.36896142 0.24029514 -0.2873536 -0.2297718 -0.2671407 0.30657843 0.11790039 -0.34372133 -0.11350669 -0.022351662 -0.14725716 0.0706135 -0.4065457 -0.1882091 -0.003711908
6913 -0.61476153 -0.06848104 0.15210861 -0.5982451 0.046999358 -0.34559163 0.2996219 -0.1118976 -0.021624383 0.049777336 0.36318716 0.09268193 -0.091190144 -0.38109165 0.28958264 -0.19031976 -0.11808572 -0.703308 -0.5531086 0.16990985
6120 -0.66606975 0.62929344 -0.36300883 -0.07635067 -0.2953446 0.14772612 -0.012480388 0.1432878 -0.31930697 -0.47389343 -0.054262787 0.17563327 -0.3442097 -0.0828153 -0.05071669 -0.72889966 -0.015147972 -0.2077619 0.06868764 0.47060853
6111 -0.47978824 0.56438583 -0.47080836 0.1106602 -0.32999286 0.15702207 -0.119627565 -0.09375248 -0.11312807 -0.6793522 -0.56585485 0.19038315 -0.33122218 0.029826347 -0.0060807113 -0.28899604 0.036915295 0.01514137 0.03404443 0.6652515
6364 -0.6866031 0.45095292 -0.13893439 -0.52319145 -0.25257638 -0.14596097 0.029183285 -0.20605339 -0.47510362 -0.59546036 0.6371303 0.065414436 -0.17240302 -0.003037041 0.10537715 -0.74090284 -0.27663887 -0.076524876 -0.58221287 0.34818265
6047 -0.01610989 0.28156886 -0.096555784 0.254443 -0.03366148 -0.30079418 0.3183951 0.2705822 0.2762091 -0.26940542 -0.51553607 -0.23653069 -0.64656544 -0.12660328 -0.17163925 0.69087 0.6242016 -0.09438226 0.14572372 -0.2672193
6097 0.10127999 0.1519452 0.18515763 0.3959512 -0.047243174 -0.2577858 0.43801197 0.37195966 0.18710552 -0.5124927 -0.67276996 -0.055549257 -0.6080827 0.028600907 -0.0181191 0.9284737 0.3416929 0.1862345 -0.07706847 0.025599902
7029 -0.46032313 0.34192428 0.010031527 -0.5005822 -0.3755921 -0.17405356 0.328997 0.03093745 -0.16900545 -0.2815417 0.37233937 0.1593599 -0.01915026 -0.24392241 0.088818006 -0.29213327 -0.1256539 -0.3735211 -0.40106443 0.3535947
7045 -0.7216223 -0.22602452 0.33943132 -0.57658523 0.06047982 -0.44315782 0.46870574 -0.23655497 0.36939064 -0.05344004 0.5601497 -0.23303193 -0.058426723 -0.37120667 0.18156864 0.007798401 0.19721055 -0.5674129 -0.63784695 -0.35554892
6372 -0.9081107 0.21505709 -0.07446355 -0.26270592 -0.09644344 -0.14554483 0.053149298 -0.3248301 -0.121881105 -0.22040781 0.10809329 0.14392768 0.09778362 -0.31355765 0.16636732 -0.38731337 -0.347304 -0.5819023 -0.45159027 0.22246172
6192 -0.6878833 -0.13890815 -0.12451716 -0.5936833 -0.26458538 -0.20286575 0.10528677 -0.09929317 -0.009639358 -0.11725457 0.49100384 0.032382943 -0.14069255 -0.4777042 0.21717815 -0.17088997 -0.121193446 -0.6961598 -0.3894518 0.12665905
6260 -0.943531 -0.1427808 0.33449465 -0.7395291 -0.36308798 -0.16672045 0.056213718 -0.33500317 0.35374737 -0.11905092 0.3423581 -0.03356678 -0.1978713 -0.20677291 0.16451651 -0.41573516 -0.15996896 -0.6577858 -0.35194492 -0.14233518
7065 -0.80117553 -0.18058796 0.11886643 -0.5536896 -0.051052734 -0.31791434 0.2336424 -0.3534623 -0.18331908 -0.13058653 0.58679914 -0.01505921 -0.11957927 -0.21433504 0.42211708 -0.10502415 -0.0454686 -0.5876992 -0.48838902 -0.04128944
6253 -0.80127484 -0.024274882 -0.03236141 -0.9492965 -0.213485 -0.22154634 0.15796733 -0.18037872 -0.025377337 -0.07391827 0.4591828 0.0011392353 -0.14929625 -0.17714736 0.2716821 -0.33054417 -0.34868655 -0.43123156 -0.41877624 0.08815608
6368 -0.7987473 0.45889372 0.04043984 -0.5120675 -0.30844745 0.061997056 0.13738422 -0.36338183 -0.19482797 -0.312691 0.47644472 -0.04342298 -0.15241067 -0.27065834 0.31534573 -0.61158717 -0.4343813 -0.4259077 -0.35138774 0.269507
7014 -0.35800338 -0.42759252 0.20216455 -0.47705415 -0.16772822 -0.43929026 0.39633933 -0.07564592 0.20937027 -0.06913771 0.14966114 0.052395254 -0.33258176 -0.35288846 0.08707342 0.47147402 0.356375 -0.440476 -0.07867458 -0.5690871
6249 -0.696861 -0.22036971 0.13330285 -0.6221543 -0.13654974 -0.25590062 0.24341005 -0.081185326 0.16033836 -0.008666221 0.29104105 -0.076466165 -0.2932576 -0.5149455 0.24469088 -0.060645428 -0.03249249 -0.3808532 -0.20919332 -0.06522402
6246 -0.10947805 -0.47552475 0.2484261 -0.4915599 0.038402412 -0.60545176 0.68137056 0.13729821 -0.1131855 -0.14877297 0.36856627 -0.0060033128 -0.34264076 -0.3857867 0.15965745 0.38462836 0.1364414 -0.20402163 -0.34614012 -0.4910002
6703 -0.7533935 0.34373137 -0.31818512 -0.38237682 -0.33460227 -0.06782632 -0.012896975 -0.27562982 -0.22236237 -0.5140472 0.311625 0.26161525 -0.16265978 -0.013936747 0.16772194 -0.50446063 -0.31580806 -0.2264091 -0.22869481 0.2765447
7030 -0.6395243 0.31291413 -0.29671505 -0.43804333 -0.42981577 -0.13494945 -0.21782042 -0.26908198 -0.17370091 -0.5124784 0.26525843 0.21646224 -0.33172616 -0.01928879 0.003444751 -0.13741352 -0.27246675 -0.1533092 -0.044605393 0.17971705
6127 -0.4753755 -0.14880463 0.121576786 -0.5879182 0.04025184 -0.3131854 0.4313417 -0.1714969 -0.20318873 -0.1103683 0.31322125 -0.021764096 -0.260559 -0.58175606 0.23854537 -0.42079994 -0.030633261 -0.38762704 -0.3420801 -0.24548116
6245 -0.38735294 -0.42107642 0.22034551 -0.5616126 0.15421875 -0.4256595 0.57545406 -0.13815412 0.27741814 -0.08374671 0.35237873 -0.12525518 -0.21138933 -0.57456124 0.07740945 0.11777538 0.31292802 -0.5042039 -0.44249114 -0.22046562
6075 -0.09431904 -0.22740161 -0.15247582 -0.29160076 -0.038400553 -0.20336999 0.56255823 0.3388088 -0.0053136945 -0.3924345 -0.17564376 0.26368764 -0.2003375 -0.20545761 -0.16819361 0.5389762 0.42465603 -0.14717793 -0.2966226 -0.35805786
6261 -0.6866896 0.027199471 0.10943204 -0.38896662 -0.11384179 -0.28829554 0.3847647 -0.098813646 -0.042177733 -0.10962598 0.3354066 0.18351701 -0.10926273 -0.41885546 0.1975848 -0.2559358 -0.18561608 -0.3958843 -0.082566805 0.09984864
6005 0.13548626 0.44011626 -0.14236803 0.39891684 0.08660392 -0.16846909 0.45849544 0.3823095 -0.026560696 -0.5937713 -0.7825087 0.12898494 -0.38880906 0.29985824 -0.23867013 0.9681388 0.21887861 0.02035065 0.07452175 0.09790223
6258 -0.92830306 -0.0041472856 0.36108553 -0.4081876 -0.0013877958 -0.4543835 0.3904383 -0.1481554 0.15706256 0.116878286 0.3344093 0.27052766 -0.10468066 -0.37303683 0.2770747 -0.30892807 -0.13999589 -0.44922873 -0.20489343 -0.02545121
6126 -0.81786984 0.4947068 -0.34207574 0.04683511 -0.2957056 -0.025702149 0.21885379 -0.29507282 -0.29297894 -0.53995174 -0.05277716 0.089208655 0.14017409 -0.019575184 -0.12134124 -0.36505157 -0.4513202 -0.16467206 -0.25364497 0.23037301
6315 -0.14959349 -0.6071837 0.27039146 -0.092773855 -0.0724636 -0.7032408 0.39480126 0.10049933 -0.0954119 -0.032239232 -0.17914562 -0.0011441631 -0.29707772 -0.62508374 0.1311624 0.79694235 0.40589893 -0.42876706 0.30271655 -0.15618105
7027 -0.6155005 0.7290898 -0.4283881 -0.89352787 -0.21449997 0.15376651 -0.08646729 -0.17074393 -0.59780306 -0.597928 0.5597588 0.28434327 -0.1693114 0.13840999 0.22573458 -0.83632725 -0.54157376 -0.23951088 -0.53382283 0.46606746
6734 -0.7240406 -0.27342734 -0.023626793 -0.52009434 0.13762483 -0.33146134 0.3878157 -0.23935041 -0.31027892 -0.24502113 0.8158287 -0.001620868 -0.095336564 -0.3005875 0.32590258 -0.0784591 -0.32822472 -0.47822735 -0.8448617 -0.21383601
7042 -0.4637866 -0.4421795 0.23142235 -0.6437393 -0.12955104 -0.7252175 0.26765507 0.09635034 0.07912306 -0.17849135 0.41751832 -0.09403881 -0.06474672 -0.36443996 0.08030751 -0.009838384 0.0064836424 -0.60843956 -0.14309299 -0.14187986
6259 -0.44036442 0.43786797 0.085434206 -0.38368335 -0.29005906 -0.10791741 0.21692756 -0.21483998 -0.3483482 -0.36168745 0.2726462 0.23237497 -0.16045266 -0.12299572 0.27961546 -0.5134516 -0.08159887 -0.6062557 0.023513375 0.2813663
6156 -0.44588095 0.22462244 0.0147258025 -0.08133908 -0.18687934 -0.39309353 -0.05500912 -0.2611445 0.22528444 -0.10897758 -0.2469065 -0.03978795 -0.40746832 -0.3733574 0.121193096 0.14697576 0.029737651 -0.5211354 0.15968877 -0.14175044
6748 0.2536587 0.541057 -0.08158087 0.40284035 0.23511574 -0.2261174 0.41245165 0.24617717 -0.056234345 -0.78341633 -0.6286554 0.2502549 -0.7045552 0.22705185 -0.17755926 0.95873183 0.18457521 0.5764564 0.13405703 0.12752296
6362 -0.9637769 0.14623967 0.11328741 -0.7717545 -0.37190795 -0.37822926 -0.049405303 -0.39583617 -0.10871902 -0.18734892 0.73132235 0.24262801 0.13691412 -0.45009843 0.3270634 -0.4243897 -0.5808031 -0.6447301 -0.15561047 -0.07528918
6904 -0.6355063 0.016287452 -0.100488625 -0.73874235 -0.28743315 -0.33597907 0.08222984 -0.044127256 -0.20068061 -0.3091335 0.57638735 0.08587474 -0.1397851 -0.19689658 0.08125958 -0.46876857 -0.19212086 -0.48110685 -0.25838897 0.0394124
6266 -0.7788615 0.31611422 -0.040927153 -0.8946829 -0.29672363 0.010119397 -0.09825628 -0.17404592 -0.27854916 -0.39532286 0.6637993 0.1808644 0.080347404 -0.34849244 0.37287322 -0.38732797 -0.62220144 -0.49946946 -0.7089639 0.24594577
6418 0.22245401 -0.10177608 0.1160066 0.25888357 0.39912882 -0.43389273 0.7302323 0.37848794 0.049780592 -0.6475596 -0.63748276 -0.2536466 -0.5618838 -0.0483733 -0.18303765 1.1889509 0.5676263 0.488136 0.055956896 -0.6272667
6929 -0.5455544 0.045190666 0.28206226 -0.43639186 0.077628486 -0.27573636 0.44234574 -0.16472787 -0.11978662 -0.13939847 0.40626204 0.04214471 -0.22092299 -0.33971494 -0.0065252455 -0.35476118 0.07818559 -0.4714604 -0.4372604 0.12311407
6386 -0.7493419 0.61200416 -0.19565068 -0.36147368 -0.27203017 0.1440248 0.06678653 -0.37155575 -0.2615149 -0.55268455 0.3665586 0.16975464 -0.08534125 -0.04901641 0.13713111 -0.63022 -0.3866693 -0.2034882 -0.5535123 0.524183
6149 -0.6933835 0.3863051 -0.14942698 -0.47880858 -0.37240067 -0.03553666 0.080459386 -0.45877513 -0.40564433 -0.41017032 0.5493936 0.23697238 -0.07406919 -0.27686313 0.15795042 -0.50348514 -0.14524244 -0.29040745 -0.3688823 0.284186
6335 -0.72462416 -0.24380873 0.22597171 -0.9706841 -0.3570487 -0.5404904 0.13592237 0.081042424 -0.16569194 -0.0061373655 0.79533595 0.105491355 0.0014761593 -0.502067 0.43522754 -0.32387942 -0.31717163 -0.61376804 -0.41727513 -0.022775266
6264 -0.63913083 0.1819079 0.10338419 -0.69672316 -0.12648034 -0.4655534 0.09714261 -0.29440483 -0.20286609 -0.12493152 0.47344404 0.0011995832 -0.09651488 -0.37331402 0.26302645 -0.4366683 -0.27990878 -0.47951636 -0.32991117 0.1107529
7022 -0.34314266 -0.34397012 0.29712817 -0.6550124 0.26171386 -0.2903963 0.65345514 0.14082387 -0.07923342 -0.14655294 0.6269776 -0.099623 -0.13646482 -0.32812145 0.19838089 0.20736688 0.2197672 -0.61173505 -0.79288036 -0.2812128
6017 -0.32929254 0.6208241 -0.2080569 -0.049969334 0.002836038 0.020758653 0.10825877 -0.09331474 -0.4304455 -0.65810347 -0.053836312 0.2579578 -0.4412986 0.024063746 -0.025437813 -0.26122442 -0.086118095 0.11971212 -0.2635919 0.24810542
7012 -0.3827713 -0.6044422 -0.038178302 -0.42568722 -0.14175126 -0.340259 0.23195246 -0.0695781 -0.011664205 -0.3870958 0.312543 -0.2021273 -0.24317762 -0.3767832 0.056042474 0.6140943 0.16994016 -0.36471942 -0.13383287 -0.5369669
6099 -0.18429951 -0.067338645 -0.13839047 0.39770856 0.21338345 -0.18892956 0.42179653 0.09237511 0.12265894 -0.4916636 -0.93898547 0.03488117 -0.58252054 -0.047066905 -0.28724152 0.6102127 0.5374804 0.19126157 0.049329355 -0.14376552
7025 -0.5818122 -0.007877247 0.24711455 -0.96718794 -0.069443084 -0.15598182 0.34732312 -0.41398707 -0.085975185 -0.11357014 0.6667049 0.006418775 -0.18807022 -0.29422367 0.32590944 -0.24308583 -0.23034656 -0.6579637 -0.5292576 -0.17846698
6198 -0.34321323 -0.2673379 0.17521079 -0.70223075 -0.09352958 -0.31918094 0.36601585 -0.032102086 -0.08288257 -0.36329615 0.65515345 0.032594964 -0.19076288 -0.2054644 0.14640531 -0.0021500688 0.034050755 -0.5202185 -0.5197197 -0.12693413
6367 -0.72705615 0.17821531 -0.01065166 -0.76536226 -0.22928652 0.04259489 0.10242038 -0.19160137 -0.3034883 -0.40845132 0.47298312 0.2134421 4.4068292e-06 -0.28974724 0.3013364 -0.51638794 -0.28429934 -0.5185013 -0.19948131 0.31359264
7024 -0.5141507 0.09515668 0.09470775 -0.43992126 -0.019126099 -0.06699961 0.1732655 -0.076522574 -0.22495314 -0.45071897 0.111367784 0.06931121 -0.18948357 -0.1553905 0.16095662 -0.22205423 -0.10413868 -0.25684464 -0.6063623 0.08727432
6270 -0.54572344 -0.07837703 0.0003983519 -0.900329 -0.22745903 -0.4658859 0.15553874 -0.07680767 -0.3878162 -0.2739631 0.8208702 0.18875936 -0.027565451 -0.25071135 0.29365796 -0.2895414 -0.51724875 -0.5640903 -0.40160006 0.049736813
6121 -0.5395785 0.87802964 -0.34909326 -0.12891795 -0.11938656 0.21523276 -0.093724385 -0.2693953 -0.38833985 -0.75876886 0.20031045 -0.0071281297 -0.46519154 -0.031209115 0.25590375 -0.5627253 -0.18449098 0.30611148 -0.59637284 0.4824708
7019 -0.49108714 0.74361193 -0.10141191 -0.29627517 -0.25717452 0.083995074 -0.008727131 -0.1954841 -0.26738378 -0.5886809 -0.11318488 0.36802065 -0.14815448 -0.18453293 0.05100626 -0.65578026 -0.3030291 -0.16343628 -0.11448182 0.68465
6265 -0.69960743 0.26987576 -0.003407714 -0.56777096 -0.25588888 -0.11124178 0.20814586 -0.22055666 -0.25151315 -0.3621436 0.6292825 0.13204359 -0.09939159 -0.19196585 0.24408229 -0.40485528 -0.40910846 -0.3279294 -0.3787557 0.076772206
7071 0.10232513 -0.2350983 -0.004559984 0.03449717 -0.0021006935 -0.45699888 0.2822097 0.3374887 0.09341738 -0.37535933 -0.70657235 -0.13060857 -0.38300455 -0.22443935 -0.07868987 1.1324034 0.4738263 0.036293857 -0.18967825 -0.23329923
6329 -0.5499047 -0.28502992 0.36136448 -0.7425111 0.037504833 -0.47287267 0.47761497 -0.11056865 -0.15551767 -0.04461429 0.65267915 0.24300165 -0.12827322 -0.5910906 0.1338794 0.0057246634 -0.04121257 -0.53620327 -0.034849614 -0.28695506
6327 -0.4148858 -0.3042653 0.33938655 -0.8645082 0.13071103 -0.53424555 0.47916633 0.058846425 -0.1382257 0.041685686 0.5484753 -0.047273185 -0.15101686 -0.5959589 0.294513 -0.036550835 0.037550278 -0.5765948 -0.45573854 -0.3821498
6277 -0.87107086 0.2909621 0.045486636 -0.7276235 -0.37126818 -0.30565876 0.11838665 -0.3540641 -0.04221357 -0.13194518 0.7981697 0.16407956 -0.21229976 -0.25951922 0.28153303 -0.60562885 -0.564137 -0.48645914 -0.2831524 -0.09993797
7035 -0.50170755 0.33068982 0.026360339 -0.3626795 -0.12982872 -0.16198626 0.06081197 0.02593841 -0.36137938 -0.34759018 0.34831992 0.10462206 -0.30808595 -0.30311412 0.22122438 -0.36206663 -0.1276161 -0.31067714 -0.3812354 0.12712666
6305 -0.20351104 -0.29341877 0.35847166 -1.0844988 0.11249849 -0.63475287 0.5401758 0.13743946 -0.20542516 -0.12615126 0.82322353 0.15918137 -0.050018635 -0.24356396 0.28217232 0.6225646 0.16856399 -0.23120126 -0.75131524 -0.6002148
6727 0.24985537 0.414879 -0.32589158 0.42414835 0.004345912 0.12047121 0.33173752 0.21043192 -0.19449699 -0.82735854 -1.0287408 0.06013971 -0.56284106 0.101582475 -0.2425635 0.5678549 0.50689393 0.17626736 0.033209905 0.33865088
6358 -0.7850512 0.1809362 0.18254384 -1.179281 -0.5191869 -0.25394443 -0.08459237 -0.2951416 -0.31697384 -0.22309422 0.82546854 0.17696658 -0.26808354 -0.34921274 0.5165708 -0.9460565 -0.5211182 -0.36010492 -0.4229493 0.07840755
6275 -0.71737283 -0.16340552 0.2168005 -0.97742856 -0.1619361 -0.4487535 0.24652094 -0.031314153 -0.044131204 -0.016737614 0.7930422 0.054305263 -0.0358961 -0.40090635 0.363599 -0.2907044 -0.3150391 -0.52988786 -0.6866486 -0.1211006
6194 -0.1133377 0.3810802 -0.17642249 0.42695826 0.19743681 -0.14314128 0.19848259 0.20518284 0.23529805 -0.7041465 -0.5838527 0.06684754 -0.6554487 0.08718313 -0.31241655 0.9025486 0.37918386 0.48119697 0.051133543 -0.06767452
6916 -0.6548712 0.32883194 0.071314916 -0.8414874 -0.046718366 0.02740628 0.08447875 -0.28096363 -0.34343114 -0.50357443 0.819061 0.08988291 -0.2621269 -0.14892152 0.20690744 -0.35718414 -0.31862232 -0.26849106 -0.42613673 0.08300793
6336 -0.36604226 -0.043660525 0.4578077 -0.7667699 -0.2714747 -0.52623504 0.5626208 0.040525492 -0.26483732 -0.08444248 0.6118191 0.122742005 -0.17405559 -0.36230028 0.16815671 -0.26380035 -0.26712638 -0.23140429 -0.43135768 -0.015045268
7039 -0.7674559 0.76819897 0.05673688 -0.6442776 -0.043823116 -0.040772084 -0.08983953 -0.41816697 -0.12777755 -0.3615491 0.4901286 0.38606307 -0.25324938 -0.14296958 0.23415977 -0.64944994 -0.35072637 -0.2501777 -0.3625301 0.2551408
7061 -0.70337397 -0.3644545 0.28467584 -1.2299986 0.083038405 -0.51782215 0.5011876 -0.07205785 -0.15120539 0.109019704 0.817061 0.054584507 -0.042739164 -0.49326542 0.16887401 -0.24153021 -0.3435579 -0.54587793 -0.5508824 -0.33766672
6251 -0.6720692 -0.028004741 -0.0032911103 -0.5272907 -0.19414344 -0.6724705 0.1462295 -0.050748795 0.2716649 -0.0024988323 0.18668847 0.030189544 -0.17549396 -0.27111393 0.13692476 -0.25085127 -0.43804255 -0.5269309 -0.03347805 -0.112572625
6923 -0.944105 0.06137004 0.09767508 -0.8641695 -0.118173115 -0.3931397 0.063900255 -0.2081548 0.016617877 -0.013626635 0.69344807 0.073458366 -0.029017543 -0.32425204 0.35311642 -0.48045197 -0.48632324 -0.6506009 -0.51816237 -0.023448067
6340 -0.6826106 -0.13128217 -0.015079675 -0.9452969 -0.14267218 -0.3183488 0.3400431 0.17991851 -0.2445958 -0.071737885 0.746984 -0.059533473 0.023730978 -0.43379855 0.21707353 -0.16590881 -0.16569845 -0.39104855 -0.6836493 -0.360169
6370 -0.5560535 0.7246709 -0.4222846 -0.52746177 -0.4410838 0.052328665 -0.14488196 -0.30114076 -0.426277 -0.6688851 0.43246526 0.16624025 -0.16613495 -0.15065446 0.38495147 -0.770452 -0.6269586 -0.22272888 -0.27207798 0.5159405
6328 -0.519143 -0.36895654 0.10859079 -0.8354977 -0.12811036 -0.32944977 0.43637264 -0.04557498 -0.20831993 -0.19126368 0.7862706 0.016035862 -0.122589335 -0.4527483 0.23863356 -0.12591287 -0.1836364 -0.5008777 -0.725253 -0.28923383
6360 -0.6191751 0.27268684 0.028468646 -1.023374 -0.18260573 -0.12885143 -0.033197723 -0.49879983 -0.37986997 -0.54555136 0.71939355 0.18537723 0.014655263 -0.23773633 0.3206893 -0.672186 -0.38745806 -0.52558225 -0.41581243 0.24891719
6924 -0.6946178 0.16902962 -0.04693873 -0.87248874 -0.13170055 -0.3709479 0.13627064 -0.18419775 -0.099783115 -0.14057171 0.7745701 0.28585863 -0.17366895 -0.17015974 0.3525683 -0.24314643 -0.5173249 -0.45309633 -0.33160052 -0.04533009
6434 0.30263773 -0.0848844 -0.14733286 0.06397956 0.2708201 -0.47244316 0.5219419 0.41420752 -0.06157283 -0.61522067 -0.79746115 -0.18235321 -0.6140719 -0.14484906 -0.071056254 0.9966206 0.39748967 0.7025092 -0.19078602 -0.36078668
6918 -0.6656349 0.3389 0.02294437 -0.7924243 -0.068335146 -0.35440144 0.03655994 -0.16135031 -0.48295614 -0.2621741 0.79420716 0.020388687 -0.13086571 -0.27910066 0.3656571 -0.5997953 -0.41837206 -0.5211346 -0.28745413 0.09978069
6002 -0.38028914 1.0900112 -0.6812231 0.30008742 -0.186465 0.4668231 -0.10381824 -0.1894637 -0.62251115 -0.9926943 -0.40823293 0.28935692 -0.42639083 0.25012204 0.009451086 -0.5215196 -0.3294463 0.095526926 -0.0137052685 0.7057759
6373 -0.47311664 0.48533657 -0.15089121 -0.86381376 -0.2034746 0.051826183 0.13134806 -0.10223463 -0.41013637 -0.49198887 0.28237352 0.022960884 -0.030736504 -0.22590509 0.25751993 -0.38418466 -0.36326966 -0.15632921 -0.25316066 0.20373738
6273 -0.743647 0.19927976 0.20228723 -1.0022466 -0.169501 -0.5269462 0.16681182 -0.11824914 -0.28827494 -0.24217594 0.9284942 0.102320775 0.04080203 -0.23198088 0.2050887 -0.81136787 -0.3537289 -0.55166477 -0.42586267 0.16230813
6752 -0.44570288 -0.17555873 0.4107213 -0.529349 0.086957835 -0.40010875 0.547507 -0.02385737 0.014256223 -0.13280934 0.45281574 -0.057207268 0.0825113 -0.3601154 0.058252294 0.42206246 -0.01119279 -0.6717855 -0.3874308 -0.19027032
6048 -0.10242266 0.5241873 0.03971345 0.22501315 0.006489168 -0.23349655 0.31879234 0.33334538 0.20713316 -0.29673943 -0.82728696 -0.073052585 -0.76420236 -0.046660572 -0.30595148 0.5953083 0.36700392 0.40749592 0.3662403 -0.08676312
6088 0.009085704 0.06894657 -0.40639877 0.58578116 0.16636981 -0.09442826 0.3839347 0.13627124 0.0054209186 -0.61888933 -0.92790186 -0.00646419 -0.39694473 0.056139484 -0.0015023171 1.0951376 0.5482499 0.011403556 -0.05035826 -0.10474596
6361 -0.76923877 0.3856613 0.2191307 -0.8186627 -0.28740928 -0.26602876 0.01368087 -0.2957857 -0.19322209 -0.11710796 0.6460764 -0.033906747 -0.18549016 -0.35862374 0.2551737 -0.6707634 -0.30447575 -0.4467543 -0.24352406 0.15002595
6302 -0.4631729 -0.65619546 0.1357225 -0.62264556 0.17009579 -0.54720676 0.6243975 0.2709366 0.1863766 0.025817966 0.3643476 -0.07463375 -0.076847024 -0.53538036 0.11370663 0.8102613 0.14786997 -0.26834178 -0.63030213 -0.72759914
6332 -0.42605543 -0.33867866 0.4679154 -1.1921153 -0.20386937 -0.5683069 0.4437882 0.15866323 0.025949888 0.07860921 0.7669727 0.10347871 -0.030345093 -0.69161725 0.20917897 -0.06775216 -0.029489448 -0.5252772 -0.5422785 -0.42807198
6397 -0.5999988 1.0762792 -0.27481976 -0.32658184 -0.122241065 0.13939475 -0.10698045 -0.39409584 -0.5512907 -0.5443769 0.28555328 0.4403287 -0.5140213 0.13875046 0.10308381 -0.9214515 -0.43140903 0.107081026 -0.64046794 0.8074406
7021 -0.3106534 -0.73195887 0.2968902 -0.9976462 0.37976298 -0.5700439 0.5470252 0.35310248 0.032329194 -0.13621788 0.5612095 -0.15460804 -0.22447357 -0.3898976 0.054980785 0.66829276 0.05980149 -0.28911406 -0.63741565 -0.6487074
7079 -0.032313175 0.18279667 -0.12561184 0.33643928 0.14868368 -0.2931837 0.29518914 0.15126228 0.18930808 -0.60789317 -0.5721252 0.027073199 -0.53525776 0.015393943 -0.12010059 0.8299769 0.33797014 0.08578854 0.10438794 -0.20667873
6162 -0.6480376 0.6326038 -0.026820954 -0.6521104 -0.17132552 0.19331342 -0.060241118 -0.27549973 -0.50609595 -0.49142152 0.5403418 0.3418417 -0.21097505 -0.13509485 0.18407694 -0.72203565 -0.33481818 -0.3991885 -0.4324951 0.45435753
6276 -0.8187711 -0.030643657 0.2027908 -0.70228916 0.0545424 -0.2536849 0.2943239 -0.28904426 0.041909512 -0.0719824 0.8031484 0.1321999 -0.14072457 -0.3756895 0.40003556 -0.18742108 -0.24616009 -0.46042806 -0.7954416 -0.20576689
7020 -0.557629 0.7541659 -0.454864 -0.510376 -0.22199315 0.25134438 0.03854497 -0.1365682 -0.2679789 -0.6377757 0.14588767 0.27169615 -0.36330605 0.044754587 -0.03777673 -0.8423486 -0.33303672 0.208902 -0.57195944 0.5385413
6330 -0.52926564 -0.23448743 0.5170755 -0.7435005 -0.054694336 -0.6348888 0.36925328 -0.21337159 -0.012872483 0.23289685 0.5267277 -0.013765895 -0.21266854 -0.4577151 0.4328341 -0.09135135 0.010672448 -0.9111327 -0.21009116 -0.20874329
6366 -0.2977747 -0.98883027 0.2395023 -0.80674523 0.10174901 -0.49197078 0.43530187 0.17010066 0.031098692 -0.38154697 0.38686696 0.041190058 -0.2856057 -0.49657336 0.19742043 0.5850997 0.6395763 -0.0023008976 -0.5000363 -0.68150777
6743 0.15062867 -0.3403928 -0.15142998 0.007517659 0.12331728 -0.37438312 0.327879 0.2433569 0.016990183 -0.7302211 -0.42771313 -0.12247405 -0.7095074 -0.08585591 -0.21186268 1.1166729 0.58585876 0.54770696 -0.18210596 -0.57746744
6331 -0.770092 -0.73058635 0.31403002 -1.1906316 -0.003546985 -0.5048334 0.43937305 -0.07158488 0.09160341 0.13642862 0.8962713 0.28776914 0.08672055 -0.64266044 0.21628009 -0.02538772 -0.20312543 -1.0457712 -0.6532986 -0.64982444
6405 0.43912017 0.43098348 -0.08977824 0.35435754 0.16984363 -0.342639 0.4810507 0.22919437 0.10580965 -0.5083368 -0.6651333 0.26551676 -0.75968593 0.1468128 -0.0845267 1.1374596 0.5212677 0.19610111 -0.057011824 -0.15361165
6322 -0.4736984 -0.43682337 0.1811074 -1.0017766 -0.11097556 -0.58782303 0.16856134 -0.22834982 -0.10496452 -0.2093729 0.76892567 -0.05527207 -0.020031849 -0.31231537 0.41579375 0.26493657 -0.09215317 -0.62098235 -0.6270824 -0.34253535
6089 -0.4083684 -0.021949964 0.08682544 -0.4990211 -0.121113926 -0.517488 0.28443363 -0.04138405 0.044162393 -0.056598607 0.21004178 -0.0053398437 -0.0815952 -0.36933854 0.1824322 -0.03794301 0.018408015 -0.58721185 -0.42164883 0.06849012
7078 -0.57292396 0.6335479 -0.33808678 -0.33086827 -0.037536263 0.25254485 -0.060741644 -0.38779244 -0.41829672 -0.75651544 0.3402345 0.25710076 -0.5382198 0.041348618 -0.05826541 -0.32695597 -0.36278495 0.29039475 -0.5113407 0.32411128
6338 -0.77319014 -0.25428507 0.14358315 -1.0891737 -0.195206 -0.51030576 0.10644778 -0.23381057 -0.2778282 -0.1660724 0.7819018 0.1820679 0.034703277 -0.31325224 0.45055777 -0.26841664 -0.17978972 -0.5820677 -0.23448664 -0.22165036
6376 -0.66722685 0.47863165 -0.12545834 -1.0794332 -0.22845331 -0.034129817 -0.18706568 -0.2438673 -0.46011928 -0.6829189 0.8915255 0.4488938 -0.35250726 -0.12824285 0.25093183 -0.7711423 -0.44573367 0.12324411 -0.26514348 0.13591386
6189 -0.8838735 0.086002275 0.1588192 -1.1715497 -0.29185212 -0.47031087 0.055682417 -0.2832205 -0.23320735 -0.09192507 0.78672254 0.31108528 -0.121697426 -0.2073511 0.31192848 -0.3534322 -0.50645787 -0.122441545 -0.2605916 -0.20185101
6122 -0.51275885 1.0920641 -0.43801102 0.036027752 -0.14122581 0.3913547 0.10701229 -0.31835285 -0.41512126 -0.93899506 0.01945511 0.24043073 -0.37232605 0.13114296 0.026630523 -0.68436205 -0.4344955 0.30068108 -0.25641626 0.45579618
6375 0.23739024 0.27343395 -0.26633242 0.5609078 0.27497536 -0.021342691 0.55278933 0.54608434 -0.38646552 -0.8687093 -0.93484265 -0.07407679 -0.6164577 0.13678555 -0.40527967 1.0596985 0.6903318 0.6394535 -0.08751442 -0.03328924
6103 -0.375386 1.1525313 -0.45244998 -0.233555 -0.1777096 0.25699618 -0.057811245 -0.19053145 -0.5639342 -1.0778313 0.33460632 0.16446841 -0.41578573 0.4084087 -0.044842865 -0.7086248 -0.39934215 0.36151612 -0.5696808 0.55843556
6324 -0.68600065 -0.38766173 0.3113196 -1.2931024 -0.115759894 -0.6590902 0.35966405 -0.20914432 -0.037743103 0.22218387 0.8561532 -0.016427092 0.11779469 -0.6558976 0.4054956 -0.11821345 -0.39881358 -0.8209655 -0.46044832 -0.2685017
6384 -0.6426762 0.6219145 -0.04543069 -0.81965774 -0.11501604 -0.06643499 -0.13995704 -0.34321505 -0.8172704 -0.71133035 0.8514222 0.3084551 0.023485014 -0.22199225 0.25582147 -0.8025076 -0.46145633 -0.25250232 -0.47305837 0.6083362
6228 -0.5516764 -0.42067608 0.49929217 -0.6769468 0.2246889 -0.54982877 0.8347523 0.060650308 -0.29247376 -0.032147016 0.77873826 0.005421209 0.10377817 -0.56295574 0.06778628 0.09727885 0.13728675 -0.5008569 -0.532415 -0.40845814
7033 0.06826141 -0.35783866 -0.18747541 -0.11785976 0.11752529 -0.28917778 0.501025 0.47026628 -0.1329586 -0.48709604 -0.63136345 0.07485566 -0.49226525 -0.11062459 -0.37608874 0.88853574 0.6322589 0.14385946 0.08769937 -0.5241094
7063 -0.58800524 -0.41673857 0.37859583 -0.9677897 -0.20879152 -0.6784798 0.15441196 -0.11124057 0.065414466 0.05549695 0.5918913 -0.14918078 -0.11343948 -0.6057707 0.4129194 -0.1043903 0.10039497 -0.698906 -0.3111206 -0.36453265
6711 -0.23620282 -0.23764832 0.37259132 -0.8571126 -0.033723153 -0.5545305 0.48415256 0.036337327 -0.21583731 -0.13622963 0.68883336 0.11419148 -0.2021568 -0.37795252 0.18606499 0.43631917 -0.021091927 -0.22567907 -0.39234987 -0.3829141
6383 -0.55926514 0.76493835 -0.2584619 -0.7002696 -0.4878586 0.12293892 -0.12757675 -0.36520228 -0.42190182 -0.5173621 0.5092004 0.35826978 -0.3932404 -0.12474359 0.2818617 -0.7627158 -0.76328033 -0.17775038 -0.19424976 0.4227599
7076 0.35797408 0.17531097 -0.1295613 0.45747915 0.35931846 -0.30735153 0.5916974 0.4168776 0.090870656 -0.78995615 -0.757199 -0.09374186 -0.7371129 0.09641202 -0.41571313 1.1460111 0.5390691 0.46333545 -0.039457534 -0.39014125
7055 0.39153984 0.2419594 -0.10493445 0.4845018 0.17137815 -0.19805175 0.3862418 0.5639192 -0.11224112 -0.6854995 -1.0897692 -0.18997987 -0.7564592 0.0054413225 -0.3443789 1.2751884 0.5818193 0.32070833 0.2786029 -0.1719869
6728 -0.4515489 -0.63929904 0.35689434 -0.8088766 -0.054088306 -0.7783749 0.4667225 0.07984024 0.0824441 0.12401687 0.66045505 -0.060900357 0.034338582 -0.8296079 0.295194 0.15267834 0.08481176 -0.7464416 -0.5515993 -0.5996396
6185 -0.78637797 0.14393172 0.19576867 -1.2698838 -0.099214196 -0.28781632 0.23786196 -0.07967281 -0.35851866 -0.24965188 0.90469056 0.17507213 -0.08365429 -0.36352706 0.3813252 -0.5954291 -0.6672788 -0.055133767 -0.46120533 -0.093278676
6724 0.35892883 0.40223825 -0.4093826 0.46206054 0.09768612 -0.3280644 0.5524922 0.43299165 0.12331546 -0.54814786 -1.0533563 -0.16585648 -0.7635757 0.18661056 -0.115696765 1.0518357 0.507236 0.5420681 0.048839558 -0.22527114
6110 -0.48092297 1.3121386 -0.3805023 0.18494949 -0.41609767 0.5004756 -0.01730713 -0.08046694 -0.45892823 -1.0394105 -0.063956626 0.30218863 -0.44396207 0.34013146 -0.10973345 -0.631836 -0.25708598 0.40225998 -0.15004916 0.56390023
6925 -0.7528481 0.15803762 0.2145883 -1.0750738 -0.25406504 -0.49254906 0.26026997 0.0041194446 -0.3489045 -0.07023319 1.0491384 0.15770826 -0.074178495 -0.3638356 0.46283028 -0.7200302 -0.5433524 -0.3511983 -0.5491241 -0.0076354984
6407 0.16184567 0.5676581 -0.38232332 0.41055813 0.03069689 -0.28853148 0.3707459 0.32508278 -0.014629116 -0.71274143 -0.94278675 0.14600964 -0.54596174 0.17179476 -0.50023305 0.7975838 0.46193612 0.65918726 0.18928562 0.25788057
6084 0.1827386 0.34157193 -0.27734083 0.5031447 0.09112009 -0.021312209 0.45684287 0.26303023 -0.034494642 -0.71959615 -0.8771657 -0.13231693 -0.8350557 0.04407339 -0.1925516 1.1013669 0.43107006 0.7068188 0.0056618517 -0.13740659
6082 -0.812497 0.56462085 -0.2228158 -1.3519896 -0.17199706 -0.11497255 -0.20025408 -0.5348662 -0.65583646 -0.30208835 1.0902021 0.18471573 -0.18205963 -0.23637493 0.40184715 -0.71165204 -0.7054728 -0.41209474 -0.38037318 0.163215
6278 -0.7622954 0.24908191 0.0030683142 -0.98406035 -0.26678744 -0.42158744 0.19104558 -0.32027596 -0.5139314 -0.3624167 1.0401822 0.011061135 0.18744846 -0.5284141 0.3764057 -0.7541862 -0.6775741 -0.29393655 -0.6777345 0.021700261
6398 -0.4368323 0.9264466 -0.36840236 -0.3664273 -0.18233886 0.54192096 -0.07351188 -0.30731535 -0.38936797 -0.9950606 0.12018831 0.31959316 -0.28487393 0.13820532 0.12193508 -0.53443563 -0.24490099 0.112578 -0.53477436 0.5708112
6128 -0.69967896 0.7804097 -0.33767226 -0.035449855 -0.17187534 0.25380203 -0.0060958727 -0.36178723 -0.314239 -0.70265543 0.19839196 -0.12465516 -0.44979137 0.0034064495 0.12221939 -0.5870857 -0.2514525 0.12098781 -0.24275029 0.3371186
6401 0.43954393 0.3990028 -0.23755702 0.4851737 0.2952582 -0.15114167 0.5893073 0.5423781 -0.23597921 -0.6613726 -0.77677846 -0.02362217 -0.76169693 0.23654698 -0.29701957 1.1240972 0.5134987 0.34262383 -0.14499289 0.081342116
6402 0.47343758 0.29967335 -0.035596363 0.40512833 0.3369769 -0.22420567 0.81182665 0.3613862 -0.21464005 -0.64226145 -0.707351 0.25404924 -0.5633454 0.20366694 -0.29869398 1.3975874 0.5799863 0.4368782 -0.18441617 -0.08599329
6380 -0.709306 0.5572387 -0.0777237 -0.7268846 -0.29558674 -0.08606231 -0.07177739 -0.5189565 -0.5577577 -0.50142634 0.46852985 0.03385549 -0.06883974 -0.086863115 0.3472019 -0.73925954 -0.34932792 -0.22199704 -0.35912016 0.3673754
6096 0.37813732 0.3876705 -0.12439452 0.40316418 0.29219842 -0.41721457 0.5808802 0.489296 -0.35369173 -0.72832495 -0.55460715 0.10815768 -0.6397888 0.061527714 -0.25375143 0.8399279 0.5017549 0.5811959 -0.17052294 -0.12108556
6029 0.5859643 0.48856777 -0.09701164 0.26700658 0.3586385 -0.198818 0.67755806 0.4919255 -0.3618414 -0.8428363 -0.7097022 0.2420299 -0.7247875 0.047147587 -0.17809671 1.2610686 0.42018294 0.91433805 -0.18271042 -0.20954783
6093 0.20483121 -0.26996806 -0.16469418 0.21955854 0.31724775 -0.4320506 0.6249387 0.34804636 0.008852646 -0.5805785 -0.766896 -0.15391834 -0.62624145 -0.16134027 -0.270213 1.0435758 0.5991076 0.46663752 -0.15504399 -0.51276314
6051 -0.41168115 -0.30183095 0.05818877 -1.0935134 -0.12840818 -0.25955695 0.117694855 -0.2626161 -0.14178076 -0.43675178 0.8063095 0.0837531 -0.33840534 -0.15481296 0.20199324 -0.25610465 0.086049825 -0.5777709 -0.51660705 -0.3367892
6090 0.15774028 0.22388916 -0.35107476 0.5464457 0.13084929 -0.14471018 0.49606758 0.20972334 -0.028818827 -0.5157666 -0.795206 0.0074673146 -0.79324645 -0.0016756469 -0.3990341 0.9158664 0.6554584 0.3869573 -0.13287677 -0.2124333
6086 0.41786182 0.6900517 -0.270993 0.46906236 0.39566565 -0.07332884 0.81958205 0.6077071 -0.23124959 -0.711293 -0.71516633 -0.01877491 -0.6864689 0.080657594 -0.2774214 0.8853224 0.5781555 0.6940064 -0.048979506 0.05587046
6921 0.43902346 0.6871603 -0.44957983 0.4835206 0.19295382 -0.03166795 0.54648143 0.4388381 -0.06032122 -0.7639795 -1.0153846 0.14736068 -0.7832784 0.3666322 -0.33916894 0.9934222 0.39831376 0.5965525 -0.18303671 0.15442395
7049 0.21552236 0.49040306 -0.3359328 0.8936947 0.36298802 0.03614299 0.5016626 0.4851163 -0.06507044 -0.8239604 -0.84350055 0.034501426 -0.8236586 0.26634625 -0.2900535 1.0243059 0.54459894 0.49166408 -0.2505157 0.18704472
6388 -0.645407 0.946272 -0.22664289 -0.4808002 -0.42319664 -0.03209653 -0.17986621 -0.38604346 -0.36152858 -0.50485104 0.43978792 0.20447855 -0.5995762 -0.06317278 0.36383095 -1.0595139 -0.33977625 0.33307934 -0.3784583 0.27761406
6272 -0.5774415 0.18292344 0.004281188 -0.91213936 -0.33873647 -0.5415018 0.11136217 -0.37453154 -0.31248677 -0.2241579 0.82582873 0.10616336 0.06604224 -0.43208954 0.5657571 -0.5030643 -0.67083967 -0.5568544 -0.43200397 -0.018271234
6700 -0.8183212 0.90051776 -0.34740922 0.077193655 -0.4403748 0.17812628 -0.19510707 -0.27559614 -0.40675485 -0.77090424 0.04161925 0.27491796 -0.27188942 0.14051528 -0.016561147 -0.77200025 -0.40546805 0.025305754 -0.22538789 0.5125404
6746 -0.52643925 -0.87053704 0.4616912 -0.98923266 0.10544194 -0.7131226 0.5419843 0.007842474 -0.11684731 0.034791525 0.9936475 -0.11367471 0.013509401 -0.41781384 0.3577957 0.6332997 0.08199731 -0.69325584 -0.91558707 -0.5867004
6125 -0.37802497 -0.9376052 0.06843993 -0.52178293 0.040845152 -0.5722507 0.4709792 0.033519506 0.47944278 -0.11958483 0.005751978 -0.26346505 -0.241308 -0.41415358 0.06597549 1.0809858 0.32079723 -0.3267562 -0.39510834 -0.9915095
6346 -0.59534496 1.2757934 -0.8777672 0.083778866 -0.07299538 0.5015922 -0.120063454 -0.31737956 -0.70908344 -1.158143 0.22443762 0.36143923 -0.50985914 0.38726014 0.031855743 -0.86570233 -0.39357406 0.45087367 -0.39555085 0.5102252
6024 -0.68124866 0.90201473 -0.5170096 -0.35474148 -0.18548107 0.36974925 -0.06729924 -0.29853922 -0.4799084 -0.77891415 0.38936287 0.46618757 -0.38642493 -0.045969818 0.07493811 -0.63307196 -0.574232 0.269073 -0.45812005 0.3084002
6301 -0.11742088 -0.72304034 0.19412014 -0.38243073 0.1309145 -0.60829455 0.7677489 0.16786642 -0.009260099 -0.2678972 0.17749062 0.064535536 -0.14380294 -0.46457362 -0.006625154 0.7727652 0.64921904 -0.2512183 -0.38012803 -1.0375037
6106 -0.10002386 1.1823983 -0.58613926 0.24204448 -0.011659346 0.45119867 0.1199758 0.27480096 -0.21418548 -1.0255759 -0.4438329 0.34173217 -0.5690683 0.11547079 -0.07062242 -0.2593553 0.28651977 0.5427535 -0.08550023 0.480116
7046 -0.852271 0.514948 -0.10203293 -1.2212431 -0.3545681 -0.23020098 -0.31100884 -0.404972 -0.43479046 -0.39011708 0.84150004 0.30789483 -0.015565691 -0.104698636 0.5302251 -0.6080404 -0.6214217 -0.30524656 -0.53693646 0.09551097
7043 -0.6896619 0.66580963 -0.18349242 -0.46739072 -0.32486138 -0.03426986 -0.13169913 -0.58236355 -0.45161688 -0.61043495 0.5302807 0.23155886 -0.35578105 0.084366255 0.21624155 -0.7651736 -0.36119872 -0.29690924 -0.07165293 0.005089357
6420 0.2011913 -0.87767553 0.62431574 -0.022369167 0.18837486 -0.94634354 0.84431297 0.33649042 -0.005009949 -0.015270954 -0.1402502 -0.13923666 -0.59711385 -0.39042836 -0.06631245 1.5072738 0.7791185 -0.10996457 -0.017550748 -0.7965995
6374 -0.29072484 0.34195232 -0.16324148 -1.0077192 -0.3490166 -0.16909893 0.08093853 -0.21933939 -0.7009225 -0.40974155 0.78351355 0.24672034 -0.155481 -0.32318 0.5588633 -0.41752446 -0.46727416 -0.25257754 -0.69298375 0.07318759
6919 -0.88188964 0.34905192 -0.062265348 -1.0779641 -0.12567584 -0.12932503 -0.06908041 -0.61404216 -0.47129855 -0.41590628 0.9253437 0.3459834 0.022395443 -0.22269501 0.45154032 -0.6572836 -0.5194237 -0.47478566 -0.43750387 0.07569918
6435 0.36243793 -0.29259112 -0.23108467 0.415481 0.39925984 -0.5226127 0.76399875 0.5074109 -0.0064380937 -0.6410916 -0.61000603 -0.11384239 -0.6155657 -0.03833442 -0.104039215 1.5680717 0.72171706 0.6093634 -0.4332369 -0.5531165
6704 -0.8649675 0.4068225 -0.039971963 -1.2852595 -0.61969733 -0.23154779 -0.19355775 -0.4318511 -0.49149886 -0.45840514 1.1710368 0.18707031 -0.07110896 -0.10873582 0.396086 -0.95091176 -0.93165386 -0.4234552 -0.4479904 0.3976915
6226 -0.8900666 0.47476414 0.03453281 -1.0326699 -0.34817767 -0.090453625 -0.07228719 -0.4403975 -0.5576277 -0.5230837 0.8842504 0.32418638 0.028299574 -0.2653259 0.43073413 -0.77568907 -0.8348769 -0.27639174 -0.25434068 0.30716613
7068 0.35878062 0.48722953 -0.36054814 0.65281063 0.32065982 -0.06252536 0.42944142 0.66464096 -0.14284259 -0.9164169 -0.93925756 0.069554456 -0.8004689 0.2580396 -0.41341648 0.9812865 0.5600563 0.6499366 -0.14346796 0.20976141
10002 0.400891 0.37383062 -0.55162984 0.4749008 0.30448937 -0.061866775 0.6682883 0.5992819 -0.31383446 -0.9429803 -0.56643504 -0.13479555 -0.84308016 0.21775728 -0.47430018 0.96057546 0.5558388 0.8030571 -0.24717668 -0.15653299
6279 -0.7818989 0.23557898 0.07239801 -1.3042718 -0.2944569 -0.46634188 -0.2527841 -0.118375115 -0.2599904 -0.22698349 0.8601882 0.120544724 -0.124034375 -0.4332553 0.33694583 -0.7186058 -0.5669337 -0.49501413 -0.2666638 -0.13460824
6347 -0.83349746 -0.1414204 0.030221786 -1.2311947 -0.4243325 -0.75468653 -0.25783804 -0.33433238 -0.5574362 -0.20740058 0.9887515 0.09559824 0.05320552 -0.32702363 0.40361065 -0.5698592 -0.7396763 -0.67599976 -0.14970331 0.0018461429
6241 -0.10333432 -0.37497753 0.27140406 -0.47371572 0.12418211 -0.45793244 0.73829985 0.22641627 -0.27757347 -0.30420813 0.64246356 -0.07044311 -0.21554182 -0.43212456 0.098394655 0.59932256 0.42195588 0.0013396852 -0.8403668 -0.5975222
6006 -0.7408459 0.6511681 -0.10274114 -1.201248 -0.34013414 -0.05570413 -0.077030584 -0.4645551 -0.5709254 -0.6504544 1.0434842 0.36193186 -0.16359998 -0.07599996 0.38070247 -0.8208284 -0.6857057 0.2289039 -0.41574478 0.31044143
6436 0.31854895 -0.2279686 -0.19107242 0.26928577 0.33537546 -0.18853846 1.0331324 0.61414164 0.16146475 -0.62030065 -0.76658785 -0.14116473 -0.79682875 -0.12329349 -0.41630694 1.230498 0.69235057 0.8826526 -0.36876494 -0.653872
6357 -0.98846334 0.44867426 -0.17254469 -1.0440168 -0.2579104 0.019088391 -0.01852423 -0.59841555 -0.7060742 -0.6364507 1.0697354 0.2220483 0.21450798 -0.23503673 0.41178164 -0.68208224 -0.8539815 -0.22619276 -0.66099715 -0.0153986355
6033 -0.8227685 0.5327531 -0.1011087 -0.908464 -0.3919444 -0.380935 -0.3505835 -0.37117165 -0.6704333 -0.51715064 0.8260209 0.36307818 0.031224664 -0.21142495 0.31424502 -0.81289166 -0.68213487 -0.3618948 -0.18610239 0.30934694
6303 -0.32639062 -0.51885694 0.055510078 -0.45950583 0.28598294 -0.2614168 0.62899506 0.25270396 -0.07145655 -0.39803725 0.28409234 -0.22364177 -0.23689155 -0.3170653 0.14629582 0.6939696 0.19348809 -0.00946619 -0.5983241 -0.7596095
6350 0.49366915 0.5589926 -0.2965345 0.6977113 0.47988072 -0.24136285 0.7736815 0.32618383 0.2250847 -0.74838823 -0.66935235 -0.11612054 -0.91407126 0.1222562 -0.36539528 1.2464496 0.65960485 0.77719396 -0.3120187 -0.045461465
6080 0.661067 -0.119312 0.04706621 0.5672527 0.57823896 -0.48474586 1.0385538 0.8740089 -0.024726545 -0.65041506 -0.8247068 -0.21239291 -0.9696692 -0.049186356 -0.18457687 1.6828417 1.0094113 0.8499199 -0.38133532 -0.3819218
6741 0.3827693 0.66712326 -0.27062637 0.4669822 0.54393166 0.04104713 0.7233875 0.44664517 -0.32558683 -0.7512888 -0.5994634 0.14600058 -0.7213234 0.1486568 -0.11808153 1.0379503 0.54960966 0.70103186 -0.54470605 0.026095517
7001 -0.1280824 0.89369106 -0.39020243 -0.17721947 0.01881025 0.25197223 0.20978853 0.17120005 -0.46568948 -0.85938245 0.051014163 0.31154478 -0.5936042 0.21618645 -0.022314934 -0.020226017 0.06874251 0.6995626 -0.56358236 0.38968214
6720 -0.6471693 1.0328716 -0.6039547 -0.0134513285 -0.40733695 0.52906775 -0.20507872 -0.3406248 -0.58958983 -1.1264441 0.081696644 0.40512356 -0.16249281 0.12517492 0.007342576 -1.0153872 -0.44306073 -0.090004236 -0.2715359 0.60460633
6102 0.5495944 0.107864514 -0.23713472 0.32325342 0.3272969 -0.24588026 0.8038173 0.4918591 -0.20446695 -0.80458724 -0.20840971 -0.16030519 -0.843057 0.016160548 -0.15896025 1.1730254 0.75204265 0.5938823 -0.30771232 -0.3923602
6091 0.5680001 0.2643552 -0.1815941 0.34773612 0.45558956 -0.07381182 0.814892 0.57744074 -0.24374579 -0.9444879 -0.8983535 -0.12497638 -0.7426836 0.09582108 -0.3785387 0.9812616 0.5606191 0.7142448 -0.31626415 -0.26422176
6240 -0.08062671 -0.9321203 0.1633059 -0.7144834 0.035621703 -0.5578901 0.5717064 0.26744172 -0.20548186 -0.35064095 0.32138404 -0.028253118 -0.13948481 -0.57060015 0.10389588 0.96831745 0.35085052 -0.16037644 -0.431007 -0.84392154
7017 -0.518564 1.5015515 -0.6018685 -0.2428908 -0.22153594 0.53025985 -0.14157414 -0.44089547 -0.7183903 -1.0014745 0.25258175 0.59915537 -0.40801024 0.4138914 -0.026955895 -0.98883075 -0.4264056 0.25942042 -0.5228174 0.83271426
6504 0.10465803 1.7845353 -0.8088993 0.44265366 -0.34053957 0.42237413 -0.003614242 0.11110921 -0.4541123 -1.060465 -0.91178435 0.19369958 -0.7137692 0.4571741 -0.26348788 -0.27207798 -0.07016886 0.7798472 0.16094388 0.8315999
6412 -0.80340177 -0.533276 0.69527864 -1.2421324 -0.34199798 -0.72299784 0.12698735 -0.065495804 -0.018384019 0.049730502 0.9379382 0.057822593 0.020579755 -0.50893515 0.39989653 -0.1604292 -0.22797868 -1.0219986 0.046133034 -0.25291234
6410 -0.5375227 -0.4746438 0.57750905 -1.2952676 -0.061382182 -0.7691574 0.5188841 -0.037629265 -0.3089106 0.11782622 1.4456794 -0.021744974 -0.043919694 -0.6188837 0.46156737 0.043996297 -0.33224678 -0.6319069 -0.8202554 -0.5932553
